{"epoch_num": 1000, "state_dict": {"0.lstm.weight_ih_l0": [[-0.09533810615539551, -0.876729428768158, -0.6042782068252563, -0.321258544921875, 0.1532151848077774, 0.15702228248119354, -0.06218130886554718, 0.005958849098533392, -0.1801605224609375, -0.36831292510032654, -0.2653852105140686, -0.17957265675067902, -0.22451728582382202, -0.13544327020645142, 0.2737736701965332, -0.48725906014442444, -0.5710564255714417, 0.2533334195613861, -0.5605771541595459], [-0.5172148942947388, -0.2400398850440979, 0.08926307410001755, -0.1468699425458908, -0.21077199280261993, -0.7092215418815613, 0.1670866459608078, -0.014323489740490913, -0.5598020553588867, -0.36829012632369995, 0.02720782160758972, -0.41349443793296814, -0.011714472435414791, -0.01477866992354393, 0.3108646273612976, -0.11339808255434036, -0.5720478296279907, 0.2313053160905838, -0.5299621224403381], [-0.2643733322620392, -0.1128852590918541, -0.48241931200027466, -0.018068259581923485, 0.22240710258483887, -0.3637285530567169, 0.229429692029953, -0.003284839214757085, 0.23473620414733887, -0.09553077071905136, -0.6404939889907837, -0.07227984815835953, -0.31735360622406006, -0.2404620349407196, 0.33327147364616394, 0.10425577312707901, -0.2638491094112396, -0.2209882140159607, -0.3054719865322113], [-0.18308782577514648, -0.43269944190979004, -0.46278682351112366, -0.15195788443088531, 0.46818625926971436, -0.20086699724197388, -0.5085833668708801, -0.22004036605358124, 0.1860409826040268, -0.6633307933807373, -0.1901378482580185, -0.049382664263248444, 0.27953454852104187, -0.1266918033361435, -0.28204646706581116, 0.014477258548140526, 0.2471611052751541, -0.42791658639907837, -0.30929094552993774], [-0.2656393349170685, -0.13215947151184082, -0.05613014101982117, 0.10239429026842117, 0.44235098361968994, 0.0034091267734766006, -0.09122264385223389, -0.16764259338378906, -0.048426851630210876, -0.038793180137872696, -0.22762899100780487, 0.16417400538921356, -0.33907821774482727, -0.1423795074224472, 0.04718932509422302, -0.33236318826675415, 0.2147599756717682, -0.6523729562759399, -0.10740524530410767], [-0.01866918057203293, -0.5940737724304199, -0.5482510328292847, -0.10246210545301437, -0.5383920669555664, -0.5208375453948975, -0.11309051513671875, 0.04552100971341133, -0.30624091625213623, -0.2196408212184906, -0.012525373138487339, 0.11425857245922089, 0.13064703345298767, -0.27147939801216125, -0.0847904160618782, 0.1478954553604126, -0.4216659963130951, -0.18014667928218842, -0.3323588967323303], [-0.36324450373649597, -0.8379352688789368, 0.2545776665210724, -0.3047106862068176, -0.579616129398346, -0.03529428690671921, -0.08043622970581055, -0.40141570568084717, -0.3678989112377167, -0.24555745720863342, -0.18249551951885223, 0.016224335879087448, -0.28512322902679443, -0.4897082448005676, 0.09993793070316315, 0.33724597096443176, 0.01729567162692547, 0.21570490300655365, 0.3569513261318207], [0.010979179292917252, 0.08166190981864929, -0.18540729582309723, -0.2549895942211151, 0.09110738337039948, 0.3724488317966461, 0.02261696755886078, -0.7418904304504395, -0.20547662675380707, -0.2545940577983856, 0.1864575296640396, -0.41586658358573914, 0.025938821956515312, -0.10063039511442184, -0.07931102812290192, -0.16176028549671173, -0.36773791909217834, -0.25715330243110657, -0.11589770019054413], [-0.3428836762905121, -0.02143815904855728, -0.0622219443321228, -0.12316317856311798, 0.3998221158981323, -0.10215623676776886, -0.4660612940788269, -0.2799592614173889, -0.34561261534690857, -0.1470140814781189, -0.555019736289978, 0.20124362409114838, -0.4976538121700287, 0.08072160929441452, 0.09729192405939102, 0.05169648677110672, -0.5801872611045837, -0.12997715175151825, -0.27522820234298706], [0.15731146931648254, -0.4575658142566681, -0.2202729880809784, 0.11845047026872635, 0.09474950283765793, -0.18946607410907745, -0.10065115988254547, -0.23915623128414154, 0.012699414044618607, -0.10192184150218964, -0.375126451253891, 0.32219818234443665, 0.013398167677223682, 0.3177509605884552, 0.2276681363582611, 0.31487220525741577, -0.2796624004840851, -0.03573779761791229, -0.04251031205058098], [-0.05881240963935852, -0.10625703632831573, -0.31308412551879883, -0.008854774758219719, -0.2843118906021118, -0.14050307869911194, -0.06393415480852127, -0.38831260800361633, -0.009329540655016899, 0.17656029760837555, -0.05705854296684265, -0.7723404169082642, 0.06001106649637222, -0.3430379033088684, -0.2162044495344162, -0.4747009575366974, -0.945102870464325, 0.006428595166653395, -0.0016244323924183846], [0.11831142008304596, -0.22162173688411713, 0.09600052982568741, -0.11550809442996979, 0.26429274678230286, 0.2210524082183838, 0.3595722019672394, -0.2875474691390991, 0.03494257107377052, 0.039295416325330734, -0.1666073352098465, -0.12793584167957306, -0.24371913075447083, 0.13920961320400238, -0.012490428052842617, -0.15607313811779022, 0.31964111328125, -0.3211439251899719, -0.252265065908432], [-0.0203818641602993, -0.12066738307476044, -0.22735410928726196, 0.23955044150352478, 0.12179290503263474, -0.4047926366329193, -0.010187550447881222, -0.06507239490747452, -0.2716694176197052, -0.022152282297611237, -0.14758871495723724, 0.0710909366607666, -0.3449111878871918, -0.13647176325321198, 0.3621746599674225, 0.2525140643119812, -0.6266881227493286, -0.5553889274597168, 0.30005452036857605], [-0.251030296087265, 0.2809406816959381, -0.12987098097801208, -0.2921590805053711, -0.007984406314790249, -0.43807747960090637, -0.1450481414794922, -0.5815603733062744, -0.4321572184562683, -0.1731654554605484, -0.5353788137435913, 0.09454429149627686, -0.025937048718333244, -0.27677175402641296, -0.19176821410655975, -0.04249400645494461, -0.17803218960762024, -0.5351273417472839, -0.039853863418102264], [-0.27288633584976196, -0.4444691240787506, -0.2583199441432953, -0.3652486801147461, 0.404380202293396, -0.030255461111664772, -0.07622789591550827, -0.11724496632814407, -0.45217373967170715, -0.17696678638458252, 0.02742118388414383, -0.569956362247467, 0.04471364617347717, -0.48889750242233276, 0.26283377408981323, -0.11891584098339081, 0.16433748602867126, -0.12117727845907211, -0.23880635201931], [-0.25241535902023315, 0.11112724244594574, -0.23796343803405762, 0.23034945130348206, -0.15284225344657898, 0.4069226086139679, -0.2755165100097656, -0.44914674758911133, -0.009062375873327255, 0.011483618058264256, -0.25327596068382263, 0.18298090994358063, 0.08660702407360077, 0.2335694432258606, 0.15147541463375092, 0.007869216613471508, 0.31130164861679077, -0.19255517423152924, -0.3999803960323334], [-0.17939430475234985, -0.11714741587638855, -0.21300004422664642, -0.472765177488327, -0.025954049080610275, 0.5266632437705994, -0.13499769568443298, -0.1422072947025299, -0.4576348662376404, 0.00012111010437365621, -0.26485857367515564, 0.2326958179473877, -0.30250200629234314, -0.10983258485794067, -0.11790218949317932, 0.12127617746591568, -0.027995070442557335, 0.3685533404350281, 0.08585445582866669], [-0.2731333374977112, -0.587425708770752, -0.44338756799697876, -0.33637988567352295, -0.6698489785194397, -0.30922672152519226, 0.2899145483970642, 0.5071476101875305, -0.2425830215215683, -0.2668609917163849, -0.2234659194946289, -0.21652360260486603, -0.6137214303016663, -0.4382345378398895, -0.0667448341846466, -0.2579379677772522, -0.20442111790180206, -0.389527291059494, -0.40227851271629333], [0.01309380866587162, -0.6871075630187988, 0.08229600638151169, -0.4232586920261383, 0.03894300386309624, -0.03739939630031586, 0.065696582198143, 0.251239150762558, -0.35887610912323, 0.09016279876232147, 0.003365735523402691, 0.043715693056583405, -0.2813199758529663, -0.14947804808616638, 0.006211916450411081, -0.30436477065086365, -0.027254916727542877, -0.2729591727256775, -0.16439570486545563], [-0.03318231180310249, -0.10955405980348587, -0.1347128301858902, 0.0046270075254142284, 0.6356364488601685, -0.4513498544692993, 0.01749255508184433, 0.03213656693696976, -0.11117693036794662, -0.5925414562225342, 0.2463407665491104, -0.148831307888031, -0.2937069237232208, -0.3032335340976715, -0.30831414461135864, -0.27318212389945984, -0.5172163844108582, -0.5275421142578125, -0.2727966010570526], [-0.5045531988143921, 0.2760559916496277, 0.2672538757324219, -0.692732572555542, -0.4734867513179779, -0.03364328294992447, 0.21836915612220764, -0.40544193983078003, -0.033703915774822235, -0.18922798335552216, -0.06924181431531906, -0.14404165744781494, 0.007852206937968731, -0.2147054374217987, 0.32566818594932556, -0.48259004950523376, -0.1613273322582245, -0.205019012093544, -0.1512996256351471], [-0.24765704572200775, -0.2907842695713043, -0.026178039610385895, -0.10408706963062286, 0.18201488256454468, 0.2515857219696045, 0.41940781474113464, 0.1225602850317955, -0.1541176289319992, -0.08449864387512207, -0.3247021734714508, 0.1379445344209671, -0.03603873774409294, 0.26394569873809814, -0.10854244232177734, -0.20734284818172455, -0.15249915421009064, -0.1705390065908432, 0.028212403878569603], [-0.11656133085489273, 0.0075221736915409565, 0.13618576526641846, -0.5251466631889343, -0.2665497958660126, -0.3106517791748047, -0.23369702696800232, 0.017127176746726036, -0.3109164237976074, -0.23604664206504822, -0.8797208070755005, 0.22011296451091766, 0.0602867417037487, 0.40411773324012756, -0.3232443630695343, -0.35137680172920227, -0.3920651376247406, -0.09456975758075714, 0.11849892139434814], [0.4968445301055908, -0.09934326261281967, -0.14182482659816742, 0.4840928614139557, -0.07144195586442947, -0.32452911138534546, 0.11583521962165833, -0.10297536849975586, -0.09548483788967133, -0.09097058326005936, 0.17757177352905273, -0.05705291032791138, -0.07249978184700012, -0.17651967704296112, 0.11976644396781921, -0.16006796061992645, 0.17443497478961945, -0.7430281043052673, 0.1679600477218628], [-0.2582480311393738, -0.4981335699558258, -0.5217771530151367, -0.08130872994661331, -0.14077940583229065, 0.22108833491802216, -0.12768946588039398, 0.09950809925794601, 0.1696348488330841, -0.4338855445384979, 0.21912860870361328, -0.44712525606155396, 0.1377996951341629, 0.011841363273561, -1.1180976629257202, -0.36819979548454285, -0.06749820709228516, -0.4771851897239685, -0.09208150953054428], [0.02269088849425316, -0.07890694588422775, -0.0580146387219429, -0.4241653382778168, -0.08181727677583694, -0.055961888283491135, -0.2573266625404358, 0.11397944390773773, -0.3859262764453888, -0.5185190439224243, -0.3117390275001526, -0.08372636139392853, -0.1767570972442627, 0.3334886133670807, -0.5543393492698669, 0.23204155266284943, 0.27345898747444153, -0.47769686579704285, -0.2061881124973297], [-0.1421496570110321, 0.04563376307487488, -0.6517990231513977, -0.0017183915479108691, -0.6829969882965088, -0.14115668833255768, -0.2998825013637543, -0.5492026805877686, -0.313015341758728, -0.018232829868793488, 0.3095168471336365, 0.3380606472492218, -0.044215720146894455, 0.1950765699148178, 0.31817200779914856, 0.46422722935676575, 0.08319798111915588, 0.23945637047290802, 0.12411458790302277], [-0.6071007251739502, -0.26816248893737793, 0.009644952602684498, -0.0891512781381607, -0.6952400207519531, -0.23542232811450958, -0.09194102883338928, -0.26084578037261963, -0.37963247299194336, 0.22022661566734314, -0.0026384752709418535, -0.3984318673610687, -0.12629014253616333, -0.7610505223274231, -0.07088731974363327, -0.5462542176246643, -0.38445279002189636, -0.6215033531188965, -0.16133743524551392], [-0.35682183504104614, -0.4812525808811188, -0.08211854845285416, -0.1576719433069229, 0.1529754102230072, -0.03984453156590462, 0.3972185552120209, -0.19154207408428192, 0.03451785817742348, -0.3639546036720276, 0.6163693070411682, -0.16515012085437775, 0.07447750866413116, -0.16577783226966858, -0.36404749751091003, -0.25485852360725403, -0.5345904231071472, -0.5094793438911438, 0.010391203686594963], [-0.5414072871208191, -0.42681774497032166, -0.1567777693271637, -0.17223915457725525, 0.2069615125656128, 0.07229802012443542, -0.5519923567771912, -0.4545114040374756, 0.1131540909409523, -0.07768159359693527, -0.533489465713501, 0.3552098572254181, -0.10669761151075363, 0.42148229479789734, -0.15161843597888947, 0.16483113169670105, -0.2656537890434265, -0.7410159111022949, -0.33756527304649353], [-0.1592443585395813, 0.030166415497660637, -0.21517014503479004, -0.2312285304069519, 0.3347262740135193, -0.27654117345809937, -0.0337194949388504, -0.33943939208984375, -0.03727750852704048, 0.06300367414951324, 0.08303202688694, -0.6529646515846252, 0.21651186048984528, -0.2204331010580063, -0.47263479232788086, -0.10701287537813187, -0.04424692317843437, -0.3216569423675537, 0.0570031963288784], [-0.1695265769958496, -0.3839995265007019, 0.16778236627578735, -0.2253701537847519, -0.005895357113331556, -0.07812152057886124, 0.3163457214832306, 0.16451102495193481, -0.11933674663305283, -0.6731794476509094, 0.23752905428409576, 0.029509887099266052, -0.2031300663948059, 0.16763681173324585, -0.38319626450538635, -0.06565684080123901, 0.17990390956401825, 0.2934093177318573, -0.4294358491897583], [0.1278916746377945, -0.018031103536486626, -0.1946994960308075, -0.18644526600837708, 0.3757999837398529, 0.06645553559064865, -0.1663522720336914, -0.2440604567527771, -0.2757548391819, 0.026671238243579865, 0.3599511384963989, -0.15462791919708252, -0.16976305842399597, 0.10604194551706314, -0.06291425228118896, -0.30839601159095764, -0.15437932312488556, -0.6964414715766907, 0.02380349300801754], [-0.37854117155075073, -0.3175888955593109, -0.05148730054497719, -0.2374700903892517, -0.22499942779541016, -0.12178728729486465, -0.45097842812538147, -0.051552724093198776, -0.42616161704063416, 0.030662652105093002, -0.23369009792804718, 0.16285423934459686, -0.7552107572555542, -0.3707582950592041, -0.17869693040847778, -0.2236657589673996, 0.058572497218847275, 0.24110883474349976, 0.0338192880153656], [-0.3136451840400696, -0.25208359956741333, -0.17734311521053314, -0.039744794368743896, -0.13433974981307983, -1.180716633796692, 0.23597295582294464, -0.24779178202152252, 0.07894061505794525, 0.0980847105383873, 0.34040847420692444, -0.11776319891214371, -0.527138888835907, 0.06326119601726532, -0.1424737125635147, -0.3525335192680359, 0.3926648497581482, -0.2139127105474472, -0.06313017755746841], [-0.2260402888059616, 0.050496045500040054, -0.24453550577163696, 0.31141531467437744, -0.3195967674255371, -0.0081072011962533, 0.5790059566497803, -0.01486689131706953, -0.3081016540527344, -0.26905888319015503, -0.10728941857814789, 0.19287186861038208, -0.20135636627674103, -0.5813273787498474, 0.18058331310749054, -0.14165055751800537, -0.4581476151943207, -0.610906720161438, -0.4494142234325409], [0.0012873196974396706, -0.21784335374832153, -0.005079769529402256, 0.057675719261169434, -0.006095878779888153, 0.05818546563386917, -1.009587287902832, -0.1517176628112793, -0.014339053072035313, -0.24955753982067108, -0.4612821638584137, -0.03711856156587601, -0.6565710306167603, -0.3798571228981018, 0.11193428188562393, 0.0028249614406377077, 0.034584034234285355, -0.482365220785141, -0.033024098724126816], [-0.3168812692165375, -0.11849886924028397, 0.3623853623867035, 0.2499549686908722, 0.0644402801990509, -0.08113128691911697, -0.24170777201652527, -0.22127792239189148, 0.028868520632386208, 0.018746180459856987, -0.21795429289340973, -0.2837963104248047, -0.4046480357646942, -0.4382023215293884, -0.5816438794136047, 0.15657448768615723, 0.07575682550668716, 0.3720856308937073, -0.19936470687389374], [0.1451539397239685, 0.30283665657043457, 0.19360527396202087, 0.1780979335308075, -0.16170981526374817, 0.09282802790403366, 0.3461647033691406, 0.5181110501289368, -0.47848376631736755, 0.16739808022975922, -0.36446669697761536, 0.05587966740131378, -0.13611969351768494, 0.4272531569004059, 0.06574945896863937, 0.21861112117767334, -0.15093296766281128, -0.34793248772621155, -0.15304729342460632], [-0.3882606327533722, -0.3076224625110626, -0.10046027600765228, -0.49828076362609863, -0.24147780239582062, -0.021292703226208687, -0.3229525089263916, 0.054558757692575455, -0.8559296131134033, -0.47183796763420105, -0.19745701551437378, 0.05174040421843529, 0.26777151226997375, -0.5684996247291565, -0.5261666178703308, -0.35021355748176575, -0.3443969786167145, -0.1987239271402359, 0.38225510716438293], [0.01674981415271759, -0.3363734483718872, 0.1632779836654663, -0.047932956367731094, -0.5921585559844971, -0.2886105179786682, -0.3297916054725647, -0.17000780999660492, -0.3240293264389038, -0.30757519602775574, -0.0012055225670337677, 0.06955170631408691, -0.30202218890190125, -0.347201406955719, -0.12463424354791641, 0.02098374255001545, -0.6092929840087891, 0.020423777401447296, -0.4628908634185791], [-0.23851554095745087, -0.11634999513626099, -0.1384987235069275, -0.2935076951980591, -0.05070306360721588, 0.34279295802116394, -0.07129767537117004, -0.0037960789632052183, -0.39812901616096497, -0.45642444491386414, -0.2682434916496277, -0.15526486933231354, 0.14145362377166748, -0.17557154595851898, -0.5543403029441833, -0.36968865990638733, 0.19243739545345306, -0.5635242462158203, -0.01994510367512703], [0.0334969237446785, 0.011032847687602043, 0.07518186420202255, -0.4177139103412628, 0.5429692268371582, -0.5417352318763733, 0.21545371413230896, 0.13311322033405304, 0.013617024756968021, -0.496408075094223, -0.31029829382896423, -0.2655651271343231, -0.0008471733890473843, -0.21958445012569427, 0.17333334684371948, -0.1300874799489975, -0.014790866523981094, -0.2285502701997757, 0.14310535788536072], [-0.2247682511806488, -0.17539271712303162, -0.27006351947784424, 0.004873841535300016, -0.20660516619682312, -0.07740947604179382, -0.25021931529045105, 0.10864590108394623, -0.006172714289277792, -0.05532320588827133, 0.06379735469818115, -0.4742690324783325, 0.01790338009595871, -0.1384550780057907, -0.09488382190465927, -0.07676725089550018, 0.030833309516310692, -0.15888988971710205, -0.17708554863929749], [0.02541058138012886, -0.47721990942955017, -0.835641086101532, -0.05323665961623192, -0.1804378479719162, -0.28049996495246887, -0.08839696645736694, 0.13666602969169617, -0.47777971625328064, -0.34683096408843994, 0.17462408542633057, -0.15443025529384613, -0.2623826861381531, 0.1662290394306183, 0.051283277571201324, -0.3302038013935089, -0.021587422117590904, -0.2644363045692444, -0.09946206212043762], [-0.07308898866176605, 0.19511273503303528, 0.2416958063840866, -0.11171024292707443, -0.38629961013793945, 0.5690399408340454, 0.013585729524493217, -0.24349690973758698, 0.3902493715286255, 0.03682376444339752, -0.3392072021961212, 0.3062530755996704, -0.09285551309585571, -0.313639372587204, -0.09079724550247192, -1.186068058013916, -0.08987023681402206, 0.0015743925468996167, 0.09144207090139389], [-0.20320142805576324, 0.206655353307724, -0.5021825432777405, 0.05848119407892227, -0.6776927709579468, -0.18178614974021912, -0.18626566231250763, 0.2755013704299927, -0.4484497904777527, -0.08816801756620407, 0.3552204668521881, 0.25123000144958496, -0.2511167824268341, -0.0832565501332283, 0.0035941253881901503, -0.4250810146331787, -0.1377747505903244, -0.5458962917327881, -0.11368176341056824], [-0.19833146035671234, -0.5635576248168945, -0.2995030879974365, -0.07069969922304153, -0.01154840923845768, -0.24217075109481812, 0.16867923736572266, -0.19930103421211243, 0.21170218288898468, -0.5174495577812195, -0.5365235209465027, 0.13853831589221954, -0.2938644289970398, -0.5371350646018982, -0.4108802080154419, -0.6437895894050598, -0.40692034363746643, -0.08994393795728683, -0.3177882134914398], [-0.21147169172763824, 0.2909427583217621, -0.28478118777275085, 0.31350284814834595, -0.19254986941814423, -0.38633015751838684, 0.04967265576124191, -0.5491102337837219, 0.2286764681339264, 0.04631129652261734, -0.5606973767280579, -0.07120127975940704, -0.1946784257888794, 0.19604432582855225, -0.016478611156344414, -0.830057680606842, 0.08764588087797165, -0.12235933542251587, -0.39149048924446106], [-0.47310107946395874, -0.023788850754499435, -0.08487728983163834, -0.73308265209198, -0.16911686956882477, -0.5265060663223267, -0.04108003154397011, 0.04617542028427124, -0.4114448130130768, -0.2746715843677521, -0.8569265007972717, -0.6500581502914429, -0.39222002029418945, -0.49986329674720764, -0.07457631081342697, -0.13377699255943298, -0.212128147482872, -0.25574272871017456, 0.23348994553089142], [-0.8694542050361633, 0.014849490486085415, -0.12737475335597992, -0.027714936062693596, -0.8748857975006104, -0.16751421988010406, 0.17756687104701996, -0.20168326795101166, -0.3447377383708954, -0.26443830132484436, -0.05933888256549835, -0.656148374080658, -0.023126129060983658, -0.04496832564473152, -0.4030565619468689, 0.44699060916900635, -0.04838204011321068, -0.11214730888605118, -0.28369811177253723], [0.10869404673576355, 0.03791111707687378, 0.03301956132054329, -0.2050124853849411, 0.4526975452899933, -0.4793867766857147, -0.02717413567006588, -0.38029682636260986, -0.037631213665008545, -0.5239797234535217, 0.3812907934188843, -0.26804375648498535, 0.17201478779315948, -0.46850651502609253, -0.01213468424975872, -0.05241268128156662, -0.7156756520271301, -0.10078100115060806, 0.1479688286781311], [-0.1087784618139267, -0.1811511516571045, 0.026933785527944565, -0.15447823703289032, -0.2144542783498764, 0.06102430075407028, -0.23583032190799713, -0.7875755429267883, 0.21424224972724915, -0.12306053936481476, -0.4417920708656311, 0.14410921931266785, 0.2737700045108795, -0.1788760870695114, 0.06795068830251694, -0.11110526323318481, -0.34111854434013367, -0.0809769406914711, -0.09415557980537415], [-0.3274955153465271, -0.048891015350818634, -0.26580455899238586, 0.005245555657893419, 0.5349794626235962, -0.6356725096702576, -0.28438347578048706, -0.15199419856071472, 0.1267879456281662, -0.11061128973960876, -0.14061324298381805, 0.03257026895880699, -0.27486640214920044, -0.3078785836696625, -0.10967111587524414, -0.6107771992683411, -0.3158109486103058, 0.2684323787689209, -0.4929719865322113], [-0.11964810639619827, -0.29112499952316284, -0.23115089535713196, -0.4415671229362488, 0.00014285737415775657, -0.07724281400442123, -0.7537140250205994, -0.46347832679748535, -0.36212170124053955, -0.45871439576148987, -0.20342424511909485, -0.5280863642692566, -0.06378424912691116, -0.09317945688962936, -0.3091404139995575, 0.19462886452674866, -0.004187238868325949, -0.10782018303871155, 0.17042595148086548], [-0.008438858203589916, 0.13833481073379517, 0.02455906756222248, -0.5975000262260437, 0.3318473696708679, -0.3266552984714508, -0.613914430141449, -0.30724456906318665, -0.40887510776519775, -0.41775578260421753, -0.363692045211792, 0.06402263790369034, -0.1389724612236023, -0.11608550697565079, 0.38040149211883545, -0.09117656946182251, -0.25272613763809204, -0.4908598065376282, -0.25382980704307556], [-0.696394681930542, -0.27340883016586304, -0.09230940788984299, -0.24346956610679626, 0.30341923236846924, -0.2108718603849411, -0.7211147546768188, -0.8021625876426697, -0.32635796070098877, -0.19661277532577515, -0.32239440083503723, -0.05267742648720741, -0.5255593061447144, 0.20121614634990692, -0.3376437723636627, -0.31551292538642883, 0.3754199743270874, -0.19360125064849854, 0.18011479079723358], [0.13391046226024628, 0.20000644028186798, -0.26995357871055603, 0.3343998193740845, -0.7243507504463196, -0.13153167068958282, 0.2843658924102783, -0.5611982941627502, 0.020612722262740135, -0.026610268279910088, -0.04617590829730034, -0.3519229590892792, 0.2879822552204132, -0.14673085510730743, 0.12444096803665161, -0.22331973910331726, -0.08967791497707367, 0.014969779178500175, -0.42525479197502136], [-0.13938429951667786, 0.17568716406822205, -0.058026641607284546, -0.15802764892578125, 0.21475866436958313, -0.1768239140510559, 0.13914309442043304, 0.34491339325904846, -0.1630198359489441, -0.04569254815578461, -0.4960830807685852, -0.22552423179149628, -0.09877938777208328, -0.12069903314113617, -0.32224324345588684, -0.12280399352312088, -0.22227269411087036, -0.16278009116649628, -0.025734981521964073], [0.13040921092033386, -0.3665674030780792, -0.443564236164093, -0.16021937131881714, -0.44843485951423645, -0.22088943421840668, -0.4004959762096405, -0.5791455507278442, 0.24989275634288788, -0.13394960761070251, -0.8539166450500488, -0.26785367727279663, -0.12584614753723145, -0.1837284117937088, -0.23105867207050323, -0.19349384307861328, 0.33407631516456604, -0.25381869077682495, -0.02922930009663105], [-0.23690971732139587, 0.3226320743560791, -0.38854530453681946, 0.12338100373744965, -0.1436052918434143, -0.2636919319629669, -0.02223905734717846, -0.004352761432528496, -0.04322009161114693, -0.18063588440418243, 0.0961141437292099, 0.27618464827537537, 0.2517300844192505, -0.3097442388534546, -0.23134267330169678, -0.5097920298576355, -0.4093572497367859, 0.15308450162410736, 0.03992658108472824], [-0.581886351108551, -0.1705695539712906, 0.16144314408302307, -0.013711262494325638, 0.2565040588378906, -0.15329208970069885, -0.5398566722869873, 0.04368181899189949, -0.47087082266807556, 0.18611761927604675, -0.45834729075431824, -0.38219547271728516, -0.6802977323532104, -0.6247395277023315, -0.08055151253938675, -0.35009559988975525, -0.2715441584587097, 0.0008452041074633598, 0.2581687271595001], [-0.650870680809021, -0.3414098918437958, -0.11572570353746414, 0.002960669109597802, -0.6104804277420044, 0.007978578098118305, 0.20145580172538757, -0.0105088846758008, 0.2147558033466339, 0.08784472942352295, -0.1173863634467125, -0.1171925887465477, -0.2569955289363861, -0.38730666041374207, -0.3601374626159668, -0.4740167558193207, -0.18193987011909485, -0.14241518080234528, -0.28568974137306213], [-0.06593622267246246, -0.12488595396280289, -0.2755184769630432, 0.31021201610565186, -0.04072563722729683, 0.05614961311221123, 0.30494925379753113, 0.1610705852508545, 0.16883526742458344, -0.02446543052792549, -0.28018319606781006, -0.17216499149799347, 0.018872641026973724, -0.18028929829597473, -0.3339669704437256, -0.1784888654947281, -0.12114708870649338, -0.053608573973178864, -0.17994533479213715], [-0.47231820225715637, -0.40812966227531433, 0.07589461654424667, -0.2606622874736786, -0.4122011959552765, -0.01619870960712433, -0.23233413696289062, -0.523747444152832, 0.24193471670150757, 0.3598579466342926, -0.2159244418144226, -0.1771051287651062, -0.050148408859968185, -0.27336424589157104, 0.007132678292691708, -0.10922007262706757, -0.0025731397327035666, -0.10413242131471634, -0.5334509015083313], [0.24365094304084778, -0.7095482349395752, -0.16289862990379333, 0.05410071089863777, 0.4781584143638611, -0.0003697891370393336, 0.06934590637683868, 0.13060465455055237, 0.13316194713115692, -0.13895832002162933, -0.23547610640525818, -0.5813726186752319, -0.5060670375823975, -0.9665412306785583, 0.09239097684621811, -0.3437672555446625, -0.3035058081150055, -0.12691248953342438, -0.1809615045785904], [-0.3900640606880188, -0.562353789806366, -0.15888617932796478, 0.3120344579219818, 0.36738380789756775, -0.4278804063796997, -0.6573898196220398, -0.049386098980903625, 0.40247732400894165, 0.034972239285707474, -0.31093984842300415, -0.25394532084465027, -0.6122503876686096, -0.08037610352039337, -0.6959147453308105, -0.07004053145647049, -0.2749589681625366, 0.21702615916728973, 0.06516110152006149], [-0.36677032709121704, -0.1179141029715538, -0.2056507021188736, -0.039945486932992935, -1.1152151823043823, 0.04764757305383682, -0.4679550528526306, -0.2984783947467804, 0.2472400963306427, -0.25317004323005676, 0.1442340463399887, 0.09933145344257355, -0.08754746615886688, -0.5266740322113037, 0.16806818544864655, -0.06829842925071716, 0.06620403379201889, 0.020251713693141937, -0.10792919993400574], [-0.005184886511415243, -0.011382161639630795, 0.04206826165318489, -0.7752066850662231, -0.16947375237941742, -0.5801913738250732, -0.4165046811103821, -0.5090129971504211, 0.09840015321969986, -0.08387088775634766, -0.37692922353744507, -0.37128913402557373, -0.7866389155387878, -0.08620080351829529, -0.41346943378448486, -0.22576409578323364, -0.4947982728481293, -0.35474497079849243, -0.1972302943468094], [0.040247928351163864, -0.0031673619523644447, -0.1996997892856598, -0.30241432785987854, -0.1431770920753479, -0.19194552302360535, -0.03835196793079376, -0.31096166372299194, -0.4369199573993683, -0.5921724438667297, -0.4788059592247009, -0.7952969074249268, -0.4636574387550354, 0.03907214477658272, -0.19252215325832367, -0.5765568017959595, -0.10301566123962402, -0.26681992411613464, -0.14667926728725433], [-0.02308979071676731, -0.25945261120796204, -0.5854847431182861, -0.03254446014761925, -0.13552600145339966, 0.04860207438468933, -0.2500876784324646, 0.0896259993314743, -0.10860104113817215, -0.09919626265764236, -0.5621072053909302, -0.21621499955654144, -0.18115435540676117, -0.1418703943490982, -0.501119077205658, 0.06017462909221649, -0.6820935606956482, -0.6210810542106628, -0.1998911052942276], [0.08749764412641525, -0.4532548785209656, -0.604697585105896, 0.22824008762836456, -0.23184680938720703, -0.03553805127739906, -0.42101815342903137, -0.5612645149230957, -0.26753127574920654, -0.4576649069786072, -0.3376214802265167, 0.1800955981016159, -0.30877119302749634, -0.20194673538208008, -0.20500588417053223, -0.4103062152862549, -0.42817527055740356, -0.30456462502479553, -0.14951372146606445], [-0.16785292327404022, 0.06877271085977554, 0.053968947380781174, -0.10933546721935272, -0.2959732115268707, -0.2092418074607849, 0.4554694890975952, -0.7237821221351624, -0.7668708562850952, 0.2374260276556015, -1.1320037841796875, 0.06584842503070831, -0.20627804100513458, 0.12069860845804214, -0.29951873421669006, -0.1012871116399765, -0.406712144613266, -0.3003745973110199, -0.1163942888379097], [-0.3795908987522125, -0.41229721903800964, -0.18063855171203613, -0.17089183628559113, 0.07306313514709473, -0.054707881063222885, 0.0757727175951004, -0.28356465697288513, -0.08860334753990173, -0.25396600365638733, 0.3858047425746918, -0.05822014436125755, -0.25665998458862305, 0.0028608045540750027, -0.5549583435058594, -0.1960613876581192, 0.4152100682258606, -0.09819276630878448, -0.7299340963363647], [-0.3890036642551422, -0.04891448840498924, -0.3193945586681366, 0.35768741369247437, -0.04499261453747749, -0.15195737779140472, 0.15802156925201416, -0.34046220779418945, -0.21621665358543396, -0.21680405735969543, 0.1525079309940338, 0.39888256788253784, -0.05012872442603111, 0.13023538887500763, -0.0038531192112714052, 0.06139422953128815, -0.005006857682019472, 0.09732098877429962, 0.20485524833202362], [0.17336872220039368, -0.18598294258117676, -0.16493356227874756, 0.09029173851013184, -0.15869496762752533, -0.007083094213157892, 0.12576542794704437, -0.1634955257177353, -0.10940774530172348, 0.1990460306406021, 0.11823514848947525, 0.20966672897338867, -0.07601205259561539, 0.6058411002159119, 0.04989182949066162, 0.16637226939201355, -0.324249804019928, -0.5892599821090698, -0.02492166869342327], [-0.2518438398838043, -0.10528701543807983, -0.8456562757492065, 0.3543505072593689, -0.27004554867744446, -0.11031088978052139, -0.23879112303256989, -0.276131272315979, 0.011489138007164001, -0.6259388327598572, 0.08708011358976364, -0.11158158630132675, -0.25889039039611816, 0.45561683177948, -0.17487362027168274, 0.1486518681049347, -0.13124710321426392, 0.2614704668521881, -0.17148275673389435], [-0.10254372656345367, -0.26410165429115295, -0.06062658876180649, -0.21086280047893524, -0.431896835565567, -0.1323733627796173, -0.2098885029554367, -0.42637327313423157, -0.27740323543548584, -0.39529770612716675, -0.19647228717803955, 0.0479004867374897, -0.33509886264801025, 0.006131426896899939, -0.4339042901992798, -0.031072499230504036, -1.1664478778839111, -0.6198561191558838, 0.18263573944568634], [0.019153133034706116, -0.0755554810166359, 0.051470283418893814, -0.08271024376153946, 0.26321089267730713, -0.10290608555078506, -0.39614298939704895, -0.28901657462120056, 0.011194185353815556, -0.3992198407649994, -0.06312258541584015, 0.24142253398895264, 0.015484041534364223, -0.4295043647289276, -0.09933573007583618, 0.05554975941777229, 0.25570443272590637, -0.4615544378757477, 0.07868720591068268], [-0.2608001232147217, -0.2610242962837219, 0.06664309650659561, -0.358303040266037, -0.08159343153238297, -0.24808047711849213, -0.08268838375806808, -0.07107085734605789, 0.17721395194530487, -0.36116448044776917, -0.06655965745449066, 0.17967335879802704, -0.2043670266866684, -0.18005815148353577, -0.8340312242507935, -0.3615485727787018, -0.5198858380317688, -0.26710501313209534, -0.08477523177862167], [0.07566353678703308, -0.19231688976287842, 0.16644327342510223, -0.2687542736530304, 0.3041428029537201, -0.07218943536281586, -0.8220577836036682, -1.0778331756591797, 0.0352335050702095, 0.10102493315935135, -0.2703993022441864, -0.30580568313598633, -0.4840114414691925, -0.18135875463485718, 0.008372156880795956, -0.631193220615387, -0.07631492614746094, -0.25904813408851624, -0.14218606054782867], [-0.2349424511194229, -0.17871840298175812, 0.28372713923454285, 0.08399316668510437, -0.9325344562530518, -0.7925292253494263, 0.011541329324245453, -0.20911119878292084, -0.7019650340080261, 0.03757619112730026, 0.24632613360881805, -0.12535040080547333, -0.38341253995895386, -0.2646312713623047, -0.1870337277650833, -0.12686395645141602, -0.6696671843528748, -0.04934047535061836, -0.4485858082771301], [-0.1841554343700409, -0.0693211629986763, 0.06218805909156799, -0.3949810564517975, 0.03510642051696777, -0.05664363130927086, -0.06252432614564896, 0.015226908028125763, -0.26821404695510864, -0.4231182932853699, -0.1476915031671524, -0.1668454110622406, 0.0002562765730544925, -0.09163428843021393, -0.4594332277774811, -0.2558997869491577, 0.006956614553928375, -0.1025613471865654, -0.08665784448385239], [-0.04923856630921364, 0.19095568358898163, -0.1550326645374298, -0.5414218306541443, -0.2755106985569, -0.16867399215698242, -0.008920605294406414, -0.25788769125938416, -0.2533079981803894, -0.6581061482429504, -0.5425485968589783, 0.6921069622039795, -0.01665188930928707, 0.046849582344293594, 0.19382169842720032, 0.009657361544668674, -0.24220886826515198, 0.25426703691482544, -0.4284840226173401], [-0.3151513338088989, -0.3634708523750305, 0.09509206563234329, -0.08924835920333862, 0.21287627518177032, -0.19317135214805603, -0.17198659479618073, -0.29529035091400146, -0.4222487807273865, 0.012825055979192257, -0.01736210659146309, -0.4783433973789215, -0.47105664014816284, -0.09174230694770813, -0.26823878288269043, -0.30683019757270813, 0.008545393124222755, -0.15641187131404877, -0.6630899906158447], [-0.05794201046228409, -0.8590660691261292, 0.20455490052700043, -0.18994253873825073, 0.1906481832265854, -0.27172157168388367, -0.11889033019542694, -0.3207900822162628, 0.2755817770957947, -0.08904653787612915, -1.0809481143951416, 0.3971945345401764, -0.297848641872406, 0.095210961997509, 0.02899574115872383, 0.18883098661899567, 0.08243930339813232, -0.122627392411232, -0.2455291599035263], [-0.24537302553653717, -0.05111352354288101, -0.2211955189704895, -0.17936672270298004, -0.25949352979660034, -0.027978623285889626, -0.16871842741966248, -0.22300204634666443, -0.12867605686187744, -0.2851162850856781, -0.26795440912246704, -0.24658533930778503, -0.08139359205961227, -0.38526371121406555, -0.2062542587518692, 0.0875818282365799, 0.3052220940589905, -0.3691898286342621, -0.07970762252807617], [-0.16646093130111694, -0.26905113458633423, -0.19697462022304535, 0.21249106526374817, 0.4267207980155945, -0.21546126902103424, 0.3060585856437683, 0.057505134493112564, 0.2063598334789276, -0.04722517356276512, -0.381037175655365, -0.04244625195860863, -0.20018792152404785, 0.15885786712169647, -0.5675362348556519, 0.01555526815354824, -0.8070594668388367, -0.8085994124412537, -0.6524008512496948], [-0.3783732056617737, 0.22073674201965332, 0.0745624527335167, -0.49910613894462585, -0.5886945128440857, 0.03905539959669113, -0.17581699788570404, -0.5736228823661804, -0.15207044780254364, -0.7867043614387512, -0.5280845761299133, -0.4040721356868744, -0.2063041478395462, -0.685188353061676, 0.025457970798015594, 0.21753017604351044, -0.02830229140818119, -0.04784112423658371, 0.46193861961364746], [-0.4447867274284363, 0.28971001505851746, 0.0978718027472496, 0.13751612603664398, -0.20388585329055786, -0.2138841301202774, -0.053917258977890015, 0.18474294245243073, 0.2746753990650177, -0.09768602252006531, -0.08949747681617737, -0.2369912564754486, -0.4156574606895447, 0.10417349636554718, 0.3809680640697479, 0.3366016447544098, -0.2815147638320923, -0.1786240190267563, -0.3558085560798645], [-0.2928934693336487, -0.1890667825937271, -0.6178761124610901, 0.5078339576721191, -0.19692905247211456, -0.26783645153045654, -0.2793811559677124, -0.28830763697624207, -0.364525705575943, -0.19661781191825867, -0.19936999678611755, 0.152999147772789, -0.15745234489440918, -0.5737813115119934, -0.2074015885591507, -0.4440051019191742, 0.10258881002664566, -0.05340239033102989, -0.12154911458492279], [-0.5539896488189697, -0.4645022451877594, -0.1896025538444519, -0.25006023049354553, -0.3532380759716034, -0.45265862345695496, -1.6073426008224487, -1.0372529029846191, -0.2508675456047058, 0.17894110083580017, -0.5298266410827637, -0.36312684416770935, -0.35789066553115845, -0.15684497356414795, -0.4913742244243622, -0.0005419270601123571, -0.07813198119401932, -0.5539098381996155, 0.054122526198625565], [0.10013816505670547, 0.03781206160783768, 0.21805354952812195, -0.059840764850378036, 0.30961596965789795, -0.28073278069496155, -0.23675201833248138, -0.27755704522132874, -0.13646773993968964, 0.08736695349216461, -0.044090621173381805, -0.0696280375123024, -0.3790993392467499, 0.339359849691391, -0.3524736166000366, -0.2743317186832428, -0.18372473120689392, -0.6088321805000305, -0.05755521357059479], [-0.7979697585105896, -0.20114128291606903, -0.41446900367736816, 0.13520188629627228, -0.6494827270507812, -0.12174325436353683, -0.22282223403453827, -0.11926642805337906, -0.30156460404396057, -0.38526302576065063, -0.2698287069797516, -0.21513833105564117, -0.061627570539712906, 0.1520511656999588, -0.03246041387319565, -0.020278945565223694, -0.2602149546146393, -0.5614328384399414, 0.02180611714720726], [-0.14865469932556152, -0.4230167269706726, -0.2056744396686554, -0.0161749180406332, -0.4862479865550995, -0.4971811771392822, -0.3593407869338989, 0.1289844959974289, -0.3270396292209625, -0.17912830412387848, -0.6136833429336548, 0.29221880435943604, -0.41537463665008545, -0.14762164652347565, -0.4317583739757538, 0.16415676474571228, -0.5143271088600159, -0.35399141907691956, -0.3119657337665558], [-0.16804726421833038, -0.05304877460002899, -0.10789477825164795, -0.010899023152887821, -0.1560424417257309, -0.14653632044792175, -0.2269999235868454, 0.1771855503320694, -0.1417243331670761, -0.2123119980096817, 0.04360399395227432, -0.1926446110010147, 0.1754210889339447, 0.39769279956817627, -0.604149341583252, -0.19794897735118866, 0.38767358660697937, 0.24685212969779968, 0.03485947474837303], [-0.009733711369335651, -0.2073097676038742, -0.5071196556091309, -0.12663118541240692, -0.5101089477539062, 0.008945106528699398, 0.04501304030418396, 0.2342522144317627, -0.955976665019989, 0.03294135630130768, 0.00481543131172657, 0.3702559173107147, -0.13872939348220825, -0.08245037496089935, -1.0810527801513672, -0.9567924737930298, -0.07148762047290802, -0.007391147315502167, -0.7037491798400879], [-0.36131617426872253, -0.4548867642879486, -0.2399682104587555, -0.10361096262931824, -0.3332412838935852, 0.06149876117706299, 0.3617822229862213, -0.014387422241270542, -0.263759970664978, -0.30479076504707336, -0.28312262892723083, -0.2276766151189804, -0.02646811679005623, -0.9898602962493896, -0.3698951303958893, -0.511688768863678, -0.3333907127380371, -0.6068611741065979, -0.10216774791479111], [0.23567381501197815, -0.24152696132659912, -0.3393261730670929, 0.1636686474084854, -0.09960249811410904, 0.2159474492073059, 0.050148170441389084, -0.06929594278335571, -0.2749481797218323, -0.15383689105510712, -0.6593047380447388, 0.11973724514245987, 0.010412143543362617, -0.40222224593162537, -0.16761445999145508, -0.35768187046051025, -0.4822327196598053, -0.651648223400116, 0.015386903658509254], [-0.07657519727945328, -0.18772251904010773, -0.3455645740032196, -0.34687507152557373, 0.23914217948913574, 0.06817878037691116, -0.5174339413642883, -0.6449909806251526, -0.2930300831794739, 0.0020610010251402855, -0.5504967570304871, -0.18785350024700165, -0.3627685308456421, -0.5514240264892578, -0.19680051505565643, 0.18684890866279602, -0.05272412672638893, 0.12900789082050323, -0.26173001527786255], [0.08908270299434662, 0.09373354911804199, -0.3950290381908417, 0.0889873206615448, 0.532223641872406, 0.22698263823986053, -0.01733044534921646, 0.21562866866588593, 0.11697246134281158, -0.22391735017299652, -0.053289297968149185, 0.14059875905513763, 0.08998566120862961, 0.14292651414871216, -0.08100348711013794, -0.666976273059845, -0.3953024744987488, -0.15096136927604675, -0.01241359580308199], [0.01725821942090988, -0.22059926390647888, -0.5681479573249817, -0.32132190465927124, 0.3685888648033142, -0.4719558358192444, -0.11586218327283859, -0.028047330677509308, 0.3011249601840973, -0.2319745570421219, -0.07869641482830048, 0.14576372504234314, -0.2541773021221161, 0.02449415810406208, -0.0843789353966713, -0.23787061870098114, -0.10664942860603333, 0.22691693902015686, -0.19324082136154175], [0.02763393335044384, -0.07470904290676117, -0.7083827257156372, 0.21387092769145966, -0.1841953843832016, 0.14301356673240662, 0.03370143473148346, -0.09860561788082123, -0.7105041742324829, -0.18930378556251526, -0.17703501880168915, -0.3426303565502167, 0.09528191387653351, -0.027497436851263046, -0.17627687752246857, -0.5125852823257446, -0.31653979420661926, 0.07461781054735184, -0.7928019165992737], [0.09686507284641266, -0.2496417611837387, -0.11195290088653564, 0.4559016227722168, 0.0011102964635938406, 0.22632448375225067, -0.4727482497692108, -0.5023300647735596, -0.19264958798885345, 0.1691729873418808, 0.4108397960662842, -0.5288141965866089, 0.3407544195652008, 0.5725617408752441, -0.2818889319896698, 0.07973868399858475, -0.20550011098384857, -0.3647502660751343, -0.24784739315509796], [-0.32256776094436646, 0.28920337557792664, -0.2851077914237976, -0.34270671010017395, -0.7240728139877319, -0.7445946335792542, 0.006057503167539835, -0.43365228176116943, -0.20507732033729553, -0.7429336905479431, -0.14049282670021057, -0.04111223295331001, -0.4430343210697174, -0.30636587738990784, 0.0869276151061058, -0.12385702133178711, -0.07943118363618851, -0.12970057129859924, 0.023986874148249626], [-0.12486086040735245, 0.1343943178653717, -0.42385682463645935, -0.006740300450474024, -0.0170902032405138, 0.1650133728981018, -0.20654213428497314, 0.2370813488960266, -0.33750084042549133, -0.062065958976745605, -0.11670374125242233, -0.302377849817276, -0.13498075306415558, -0.06016501039266586, -0.4715209901332855, -0.2191142588853836, -0.010733348317444324, 0.49551519751548767, 0.15488947927951813], [0.18140560388565063, 0.013590369373559952, -0.29509952664375305, 0.34308722615242004, -0.6775193810462952, 0.05192260816693306, -0.8610612750053406, -0.27597349882125854, -0.47115159034729004, 0.11319859325885773, 0.08524107187986374, -0.1676594465970993, -0.8186455368995667, -0.27479156851768494, -0.9005685448646545, -0.1584390252828598, -0.03183073550462723, 0.10583645105361938, -0.36110442876815796], [-0.16502372920513153, -0.44022297859191895, -0.4059191346168518, -0.5902480483055115, -0.3337998688220978, -0.3724876046180725, 0.07197742164134979, 0.2242620885372162, -0.34249046444892883, 0.03721041604876518, -0.44935986399650574, -0.38077041506767273, -0.22761847078800201, -0.0223397146910429, -0.8788461089134216, -0.31613895297050476, 0.38062742352485657, 0.04671456664800644, 0.18071825802326202], [-0.47327542304992676, 0.07045518606901169, -0.12231335788965225, -0.3478497862815857, 0.30005335807800293, -0.08816523104906082, -0.29228195548057556, -0.8132622241973877, -0.3797358274459839, -0.2139342725276947, -0.8365932106971741, -0.5723510980606079, 0.04449109360575676, -0.14150530099868774, -0.5447884202003479, 0.059842079877853394, -0.2671210467815399, 0.05237805098295212, -0.058559879660606384], [-0.2771928906440735, -0.09838037192821503, -0.02872448042035103, -0.007662652991712093, -0.058401577174663544, 0.17605306208133698, -0.21596886217594147, 0.1385074406862259, -0.16428938508033752, -0.15164002776145935, -0.18286512792110443, -0.4401819407939911, -0.0819091871380806, 0.23778153955936432, 0.036379124969244, 0.18196624517440796, -0.24185311794281006, -0.08106721937656403, -0.10958059132099152], [-0.9408648014068604, 0.03936311602592468, -0.26252514123916626, 0.13174676895141602, -0.5711382031440735, -0.10078751295804977, -0.4576234519481659, -0.5849468111991882, -0.13856008648872375, 0.17504379153251648, -0.5247625708580017, -0.5010568499565125, -0.022313330322504044, -0.6351297497749329, 0.05947934463620186, 0.4340590536594391, -0.5180651545524597, 0.008228564634919167, 0.12115723639726639], [-0.6571322679519653, -0.14532198011875153, -0.41143789887428284, 0.0397205725312233, 0.1838226467370987, -0.08692760765552521, -0.1504986733198166, 0.018179694190621376, -0.39974361658096313, -0.37014034390449524, -0.4552983343601227, 0.15229657292366028, 0.04696360230445862, -0.4766395092010498, 0.26258257031440735, -0.1656404286623001, -0.7649804353713989, 0.03957414627075195, -0.10610742121934891], [0.07200322300195694, -0.13980582356452942, 0.3212539851665497, -0.4479261040687561, -0.4962480962276459, -0.10517832636833191, -0.02441261149942875, 0.1499042510986328, 0.0051117464900016785, -0.1352432519197464, 0.24566133320331573, 0.30996406078338623, -0.13899663090705872, 0.5523790717124939, -0.23812267184257507, -0.48054102063179016, 0.26304197311401367, 0.23026946187019348, 0.012761973775923252], [-0.28878164291381836, -0.1651979684829712, -0.204824298620224, 0.13588601350784302, 0.2692127525806427, 0.1795460283756256, -0.47585710883140564, 0.05217712000012398, -0.44062280654907227, -0.12445980310440063, -0.7724674344062805, -0.24074958264827728, -0.4115038216114044, -0.10105875879526138, -0.46282392740249634, -0.08613882958889008, -0.2244151085615158, -0.13237886130809784, -0.15087094902992249], [-0.053907785564661026, -0.3098926246166229, -0.32452109456062317, 0.08959643542766571, -0.2679435908794403, 0.3648903965950012, -0.1362176090478897, -0.07042506337165833, -0.08326752483844757, -0.4770096242427826, 0.4077703356742859, -0.2460373193025589, 0.2246151864528656, -0.03946707397699356, -0.024374525994062424, -0.008382818661630154, -0.6117007732391357, 0.10585812479257584, 0.09884009510278702], [-0.5822579264640808, 0.10908868908882141, -0.21116302907466888, -0.13354983925819397, -0.006220253184437752, -0.1049245223402977, 0.0595722571015358, -0.7283060550689697, -0.2842126786708832, -0.36186471581459045, -0.3142697811126709, -0.3498145639896393, -0.3028061091899872, 0.5336305499076843, 0.105345718562603, -0.27226758003234863, -0.48408693075180054, -0.8214108347892761, -0.46185123920440674], [-0.051079537719488144, 0.14576824009418488, -0.05657612904906273, -0.2539493441581726, -0.05920404940843582, -0.395852655172348, -0.4059196710586548, 0.003338444512337446, -0.23481011390686035, -0.09453839063644409, -0.2467450350522995, 0.2811622619628906, -0.22547607123851776, 0.08762257546186447, -0.014516061171889305, -0.3545048236846924, 0.29043465852737427, -0.3500528931617737, -0.12876635789871216], [-0.49431487917900085, -0.29794883728027344, -0.09087838977575302, 0.16850845515727997, -0.496364027261734, -0.22819487750530243, -0.19466686248779297, 0.048333361744880676, 0.3230045735836029, -0.0708451122045517, -0.25122761726379395, -0.8031474351882935, -0.04076920077204704, 0.19746634364128113, -0.28003647923469543, -0.6766278743743896, -0.13195957243442535, 0.6225307583808899, 0.06312031298875809], [-0.4464358985424042, 0.3287349343299866, 0.21141096949577332, 0.08037737011909485, -0.4807054102420807, 0.011757487431168556, -0.013730970211327076, -0.19459006190299988, -0.09483936429023743, 0.049556054174900055, 0.11774194985628128, -0.9457942247390747, -0.021453339606523514, 0.3259114921092987, 0.36899951100349426, -0.04446737840771675, 0.103103406727314, 0.2038668841123581, 0.014460205100476742], [-0.19744713604450226, -0.09576256573200226, -0.4200102686882019, -0.1340387761592865, 0.2653908431529999, -0.4825020134449005, -0.18169894814491272, -0.610105574131012, 0.07557020336389542, -0.45100119709968567, 0.11868660151958466, 0.16807004809379578, -0.42147156596183777, 0.2687612473964691, -0.4525911808013916, -0.19350525736808777, 0.1184626966714859, -0.061884790658950806, 0.20192281901836395], [-0.4207700490951538, 0.01396031491458416, -0.023891879245638847, -0.718409538269043, -0.15516270697116852, -0.1038731262087822, -0.3895755708217621, -0.6383991837501526, 0.049571845680475235, -0.04928524047136307, -0.3578675091266632, -0.19848382472991943, -0.3270092308521271, 0.1319425255060196, 0.010870974510908127, 0.07145603746175766, 0.39951324462890625, -0.25584813952445984, -0.44217246770858765], [-0.13466188311576843, -0.23559781908988953, 0.1705968827009201, -0.5865092277526855, -0.1440153270959854, -0.001791173592209816, -0.06168978661298752, 0.15739284455776215, -0.25406694412231445, -0.17139331996440887, -0.24204160273075104, -0.141443133354187, 0.01222296990454197, -0.19453275203704834, -0.20847821235656738, -0.1880822479724884, -0.6257572174072266, 0.09316639602184296, -0.5916506052017212], [-0.35403454303741455, -0.027779486030340195, -0.02188263274729252, -0.2849567234516144, 0.16126763820648193, -0.2629331052303314, 0.15079960227012634, 0.09390421956777573, -0.9938192367553711, -0.24709898233413696, 0.2635307013988495, -0.5101664662361145, -0.24502062797546387, -0.03245723247528076, -0.5242886543273926, -0.23693779110908508, -0.16239768266677856, 0.3490354120731354, -0.33481067419052124], [-0.12538963556289673, 0.12880530953407288, -0.44904640316963196, 0.22324754297733307, -0.6208458542823792, -0.3770771324634552, -0.20040009915828705, -0.14218682050704956, 0.22330822050571442, 0.08719650655984879, -0.010073371231555939, 0.06907228380441666, 0.1959129124879837, -0.36921000480651855, -0.34018051624298096, -0.31082406640052795, -0.6274540424346924, 0.0801711454987526, -0.34835460782051086], [-0.4889182448387146, -0.12408748269081116, -0.02964838035404682, -0.34445029497146606, -0.023976657539606094, -0.3257608711719513, 0.027915960177779198, 0.23068594932556152, -0.16043055057525635, -0.25125038623809814, -0.20174740254878998, -0.41781866550445557, -0.4188937246799469, -0.17735300958156586, 0.023600349202752113, 0.054474201053380966, -0.5417944192886353, -0.3325965106487274, -0.5037693977355957], [-0.10156714171171188, -0.28929948806762695, 0.04849806800484657, -0.06675233691930771, -0.13953213393688202, -0.6377375721931458, 0.37000852823257446, -0.36328572034835815, 0.09785009175539017, 0.016362523660063744, 0.25246965885162354, -0.3549007773399353, -0.3286682963371277, -0.4666011929512024, -0.4395862817764282, 0.1720561981201172, -0.20212768018245697, -0.31128084659576416, 0.08771904557943344], [-0.7147558927536011, -0.10574526339769363, -0.2567455470561981, -0.16933678090572357, 0.1061331182718277, -0.31553906202316284, -0.19954204559326172, -0.27146533131599426, -0.30264535546302795, -0.2148772031068802, -0.26933521032333374, 0.16826623678207397, -0.029993919655680656, -0.0409080795943737, -0.5350498557090759, -0.024161770939826965, -0.1439322531223297, -0.2976343333721161, -0.6955409049987793], [0.10643116384744644, 0.28636622428894043, -0.5003859996795654, -0.16331122815608978, -0.03974803164601326, -0.3195263147354126, 0.18374714255332947, 0.15897268056869507, 0.04767822101712227, -0.15731853246688843, 0.05368821322917938, 0.21244056522846222, -0.2797148823738098, -0.16653867065906525, -0.43094176054000854, -0.5326953530311584, -0.14019545912742615, -0.0776120200753212, -0.45279422402381897], [0.6379925012588501, -0.3235756456851959, -0.0415525808930397, 0.0851421058177948, 0.7240893840789795, 0.6366502642631531, -0.14951425790786743, 0.1678188592195511, 0.15704038739204407, -0.05283762142062187, -0.12619885802268982, 0.0877910926938057, -0.008432709611952305, -0.23104900121688843, 0.3911018967628479, -0.008966381661593914, -0.3936222791671753, 0.8023694753646851, -0.020898016169667244], [-0.2856697738170624, 0.017119700089097023, 0.13245679438114166, 0.03985857591032982, -0.21067257225513458, -0.1605536788702011, 0.23361435532569885, 0.16463278234004974, -0.2014063447713852, -0.13877670466899872, 0.5069186687469482, -0.45033544301986694, 0.278446763753891, 0.4564647674560547, 0.5245118737220764, 0.08153501898050308, -0.23774665594100952, 0.46600162982940674, -0.2240212857723236], [0.35906100273132324, 0.07377061992883682, 0.20735040307044983, 0.571308434009552, 0.22450104355812073, 0.0758945420384407, 0.831142246723175, 0.6641993522644043, 0.4212469756603241, 0.6667225956916809, 0.016587961465120316, 0.4166678488254547, -0.2939895689487457, 0.1651315838098526, 0.5534961819648743, 0.6128473877906799, -0.004713174421340227, -0.08394896984100342, 0.10544504970312119], [0.6942930817604065, 0.10407688468694687, 0.20668566226959229, 0.807839035987854, 0.14716936647891998, 0.40767931938171387, 0.6120887398719788, 0.5491894483566284, 0.24412798881530762, 0.22941264510154724, 0.6053028702735901, 0.3492646813392639, 0.4108883738517761, 0.4765858054161072, 0.19483144581317902, 0.6335958242416382, 0.45610156655311584, 0.34712666273117065, 0.1702457070350647], [-0.03550746664404869, 0.048066478222608566, 0.1716165840625763, 0.32602840662002563, 0.3815460205078125, 0.1402762234210968, 0.04537485912442207, 0.03177345171570778, 0.20031528174877167, 0.26507657766342163, -0.15833532810211182, -0.12589968740940094, -0.13758057355880737, -0.06000557169318199, 0.30967891216278076, 0.06559297442436218, 0.4942578077316284, -0.7883816957473755, -0.14295455813407898], [0.4054560959339142, -0.3395909368991852, -0.2251729965209961, 0.08758353441953659, -0.3601008355617523, -0.20964458584785461, 0.3262934386730194, 0.38426101207733154, 0.0922173485159874, -0.0034529517870396376, 0.23670579493045807, 0.04932587966322899, 0.4707668423652649, -0.07847470045089722, -0.03942567855119705, 0.39515870809555054, -0.1523652970790863, 0.15485934913158417, -0.3248334228992462], [-0.22289296984672546, -0.7616100311279297, 0.5594766736030579, -0.2131662368774414, -0.42394647002220154, 0.4399544298648834, 0.33406227827072144, -0.18314431607723236, -0.28790482878685, -0.01406816951930523, -0.27447158098220825, 0.26717060804367065, -0.16303154826164246, -0.14159852266311646, 0.31839194893836975, 0.2919102907180786, 0.12286350876092911, 0.4109836220741272, 0.4141138195991516], [0.050518330186605453, 0.4395920932292938, 0.4160204827785492, 0.1881888508796692, 0.4703723192214966, 0.4601883590221405, 0.38823527097702026, -0.9860525727272034, 0.2866343557834625, -0.006415597163140774, 0.3901008069515228, -0.04992979019880295, 0.22412747144699097, 0.13840602338314056, 0.3420787453651428, 0.27132803201675415, 0.18550558388233185, 0.14315733313560486, 0.020534535869956017], [-0.0825086310505867, 0.03224930912256241, 0.17829008400440216, 0.056220442056655884, 0.3174212872982025, 0.2227499932050705, -0.003747022245079279, 0.26509422063827515, -0.07989369332790375, 0.04238061234354973, -0.14351214468479156, 0.2671775817871094, -0.22095108032226562, 0.11493083834648132, 0.2481774240732193, 0.20613113045692444, -0.4318203926086426, 0.06794938445091248, 0.08458215743303299], [0.20823033154010773, -0.22113512456417084, -0.16348552703857422, 0.2522452473640442, 0.5827586650848389, -0.06494373828172684, -0.15474745631217957, -0.24918144941329956, 0.31444767117500305, 0.0889647901058197, -0.062240175902843475, 0.29376405477523804, 0.0557076521217823, 0.4052337408065796, 0.29275447130203247, 0.21055659651756287, 0.06754593551158905, 0.28617092967033386, -0.0490805059671402], [0.10460985451936722, 0.22461359202861786, -0.09350011497735977, 0.22981588542461395, 0.1632009893655777, -0.007698363158851862, 0.24875915050506592, -0.2022835910320282, 0.1620682179927826, 0.43542882800102234, 0.26205870509147644, -0.7271503210067749, 0.016331905499100685, 0.015937041491270065, 0.11361446231603622, -0.3649599552154541, -0.25927940011024475, 0.19586366415023804, 0.4527166783809662], [0.1716819405555725, -0.14347386360168457, 0.2845209836959839, 0.12876372039318085, 0.39798468351364136, 0.4029761552810669, 0.4359332323074341, -0.05765226110816002, 0.14138618111610413, -0.01789872720837593, 0.13889671862125397, 0.1368003487586975, 0.18423980474472046, 0.2549111247062683, -0.005151137709617615, 0.21035797894001007, 0.42598021030426025, 0.3312530815601349, -0.006076160818338394], [0.34706419706344604, 0.35035383701324463, 0.18348082900047302, 0.21500220894813538, 0.4242525100708008, -0.35522136092185974, 0.6602396368980408, 0.17198418080806732, 0.09841001033782959, -0.13796338438987732, 0.1318991333246231, 0.26027294993400574, 0.08643074333667755, -0.05274404212832451, 0.27681058645248413, 0.2639046609401703, -0.23258398473262787, -0.17272025346755981, 0.5305261015892029], [0.04011048749089241, 0.44543254375457764, -0.12092989683151245, 0.26565462350845337, 0.047362107783555984, -0.32814663648605347, 0.228891059756279, -0.5930591225624084, -0.12598654627799988, 0.1815274953842163, -0.0690239816904068, 0.3206138610839844, 0.23838528990745544, -0.053490426391363144, 0.03874028101563454, 0.04969322308897972, 0.10253030806779861, -0.13463358581066132, 0.18845218420028687], [0.023332063108682632, -0.15345251560211182, 0.3466978967189789, 0.10612715780735016, 0.18240632116794586, 0.6533313989639282, 0.25242358446121216, -0.22041316330432892, 0.013419777154922485, 0.14589522778987885, 0.6676853895187378, 0.4875373840332031, 0.3038105368614197, -0.291849821805954, 0.45985543727874756, 0.028062691912055016, 0.6007424592971802, 0.2884316146373749, 0.49362653493881226], [-0.2763580083847046, -0.07161831110715866, -0.1343468874692917, 0.3308311104774475, -0.4106620252132416, 0.28722819685935974, -0.14607270061969757, -0.6727182269096375, 0.03203435614705086, 0.06280983239412308, 0.18520639836788177, -0.16022607684135437, 0.22316348552703857, 0.4579915404319763, 0.13315093517303467, 0.4585123360157013, 0.3231599032878876, -0.20201992988586426, -0.37660226225852966], [-0.23402106761932373, -0.05157257243990898, 0.21902874112129211, 0.047540899366140366, -0.34479233622550964, 0.1713307648897171, -0.005918941926211119, 0.06183219328522682, -0.15793760120868683, -0.002464964985847473, 0.018170496448874474, 0.4314625561237335, -0.13731680810451508, 0.055303338915109634, 0.04350963979959488, 0.18635199964046478, 0.23389707505702972, 0.4529300630092621, -0.27054107189178467], [0.07270858436822891, -0.38463765382766724, -0.06771883368492126, 0.1764315515756607, -0.6937403678894043, 0.1713498830795288, 0.7647433876991272, 0.7820047736167908, 0.10669106245040894, 0.13957111537456512, -0.06561139971017838, -0.057577285915613174, -0.25774502754211426, -0.17300574481487274, 0.26305311918258667, -0.15591011941432953, 0.1744517832994461, -0.08090251684188843, -0.10490117967128754], [0.47929295897483826, -0.35903429985046387, 0.39851248264312744, -0.45978039503097534, 0.2670193016529083, 0.3575151562690735, 0.37701016664505005, 0.41871052980422974, -0.09854641556739807, 0.21776722371578217, 0.3757098615169525, 0.3625790476799011, 0.002240530215203762, -0.07647820562124252, 0.11338150501251221, -0.00897554587572813, 0.6167049407958984, 0.3110083043575287, 0.3900834918022156], [0.28386780619621277, 0.2786635756492615, 0.023293497040867805, 0.5269397497177124, 0.7879018783569336, -0.0986286923289299, 0.15832313895225525, 0.07872187346220016, 0.31377896666526794, -0.00439156498759985, 0.5089353919029236, -0.24531200528144836, -0.05221123993396759, -0.015785394236445427, -0.018206872045993805, -0.06460776925086975, -0.3655436635017395, -0.16481828689575195, 0.020118843764066696], [-0.12037944793701172, -0.06111816689372063, 0.45293933153152466, -0.24706654250621796, -0.09118945896625519, 0.07727963477373123, 0.046664170920848846, -0.004144292324781418, 0.007890542037785053, -0.10050683468580246, 0.22788046300411224, 0.0524178110063076, 0.01963694579899311, 0.21950118243694305, 0.4561513364315033, -0.4704778492450714, -0.007589003071188927, -0.04291560873389244, -0.0275168064981699], [-0.13851937651634216, -0.007521025836467743, 0.03903411701321602, 0.5073084831237793, 0.07363787293434143, 0.3621051013469696, 0.3635317385196686, -0.2788606584072113, -0.28231847286224365, 0.4074327349662781, -0.20635126531124115, 0.21335658431053162, -0.029378551989793777, 0.4121922254562378, 0.1983485072851181, 0.07120591402053833, -0.024835307151079178, 0.25561392307281494, 0.21675609052181244], [0.1579412966966629, 0.1363401561975479, 0.29847392439842224, -0.23496189713478088, 0.1970776468515396, 0.03812548890709877, -0.15767519176006317, 0.13466091454029083, 0.10400794446468353, 0.06246497482061386, -1.0821799039840698, 0.4380330741405487, 0.2129628211259842, 0.6445740461349487, 0.0012889931676909328, 0.05186682939529419, -0.3051091432571411, 0.2874869108200073, 0.09979365766048431], [0.35276782512664795, 0.04003499075770378, 0.3142404556274414, 0.46243730187416077, 0.212151437997818, 0.09339293837547302, 0.15135478973388672, 0.19617724418640137, -0.007926327176392078, 0.08671953529119492, 0.26364371180534363, -0.0829303190112114, 0.058391816914081573, 0.05559377744793892, 0.37337779998779297, -0.12572424113750458, 0.6813124418258667, -0.029246335849165916, 0.4365963637828827], [0.009983101859688759, 0.04586736485362053, -0.03197641670703888, 0.20882417261600494, 0.37913066148757935, 0.15485626459121704, 0.18118812143802643, 0.24424231052398682, 0.23502469062805176, -0.3047669231891632, 0.40322017669677734, -0.29516851902008057, 0.28718772530555725, 0.4510914981365204, -0.6698113083839417, -0.16671280562877655, 0.43007534742355347, 0.06452996283769608, 0.4409707188606262], [0.33150264620780945, 0.4301259517669678, 0.22144360840320587, -0.031209908425807953, 0.5503525137901306, 0.2615399658679962, -0.18388517200946808, 0.022161230444908142, 0.218892440199852, 0.1963960975408554, -0.20036974549293518, 0.39735841751098633, 0.11252719908952713, 0.24015694856643677, -0.1152387335896492, 0.4016857445240021, 0.7417680621147156, -0.116702139377594, 0.04160052910447121], [0.022360896691679955, 0.17502407729625702, -0.559321939945221, 0.11019464582204819, -0.424129843711853, -0.07518889755010605, -0.17688307166099548, -0.5616013407707214, -0.246107816696167, -0.28199875354766846, 0.17573119699954987, 0.1946139633655548, 0.13891130685806274, -0.0018782493425533175, 0.16688823699951172, 0.11394938826560974, 0.04237159341573715, 0.08052743971347809, 0.1488068401813507], [-0.5877971053123474, -0.26236438751220703, 0.46453857421875, 0.2707958519458771, -0.25969168543815613, -0.12431959807872772, 0.08888179808855057, -0.020082242786884308, 0.1800447553396225, 0.52950119972229, 0.32574301958084106, -0.01468056533485651, 0.27620700001716614, -0.5159286260604858, 0.4224494397640228, -0.23508641123771667, -0.05156269669532776, -0.17336247861385345, 0.5446107983589172], [-0.045013055205345154, -0.2726362943649292, 0.0883524939417839, 0.028711600229144096, 0.48352673649787903, 0.2169998586177826, 0.2699703574180603, -0.08943469077348709, 0.2166658490896225, -0.22648406028747559, 0.4324153661727905, -0.11854899674654007, 0.008634328842163086, -0.08362426608800888, -0.39894163608551025, 0.021337363868951797, -0.2686324417591095, -0.06610764563083649, 0.3455130457878113], [-0.34875956177711487, 0.0036176301073282957, 0.2565729320049286, 0.02999226003885269, 0.37905803322792053, 0.4503116011619568, -0.022063959389925003, -0.37092092633247375, 0.21150344610214233, 0.11145361512899399, -0.18722207844257355, 0.5417479872703552, 0.3581105172634125, 0.3905014097690582, 0.1430099606513977, 0.14047999680042267, -0.12103036791086197, -0.07504227012395859, -0.12198350578546524], [0.5300443768501282, 0.09662973135709763, -0.01737401634454727, 0.3071930706501007, 0.527661144733429, 0.19628620147705078, 0.23849068582057953, -0.10067426413297653, 0.026802869513630867, 0.16853663325309753, 0.14773441851139069, -0.7441622614860535, 0.31806501746177673, -0.11605207622051239, -0.2754814326763153, -0.1107543557882309, 0.1770506501197815, 0.06634699553251266, 0.13280348479747772], [0.00788704864680767, -0.038478780537843704, 0.1232251524925232, -0.0322355180978775, 0.21426984667778015, 0.3519032597541809, 0.5232371091842651, 0.35267558693885803, -0.013523000292479992, -0.3881341218948364, 0.3741077184677124, 0.3055652678012848, 0.060576606541872025, 0.11276362091302872, -0.26645439863204956, 0.22601430118083954, 0.21893955767154694, 0.5466693043708801, -0.22233280539512634], [0.38782212138175964, 0.30066999793052673, -0.007370296865701675, 0.14141878485679626, 0.8786788582801819, 0.09489224851131439, 0.2950381934642792, -0.25804659724235535, -0.10411696881055832, 0.015418324619531631, 0.6152356266975403, -0.08560501039028168, 0.17682138085365295, 0.07167750597000122, 0.17564497888088226, 0.024147428572177887, 3.674144181786687e-06, 0.006463819183409214, 0.6348963975906372], [-0.05588721111416817, -0.2659797668457031, 0.4415891170501709, 0.1268770843744278, -0.07703694701194763, 0.35830631852149963, 0.1043032705783844, 0.1750904768705368, -0.15203969180583954, 0.3074082136154175, 0.34192848205566406, 0.6077075600624084, -0.10325770080089569, -0.3224765658378601, 0.10909278690814972, 0.024690959602594376, 0.2957349717617035, 0.4490903913974762, 0.6266019940376282], [-0.19202883541584015, 0.011918587610125542, -0.07528457045555115, 0.44706428050994873, 0.00013695040252059698, -1.0007578134536743, 0.6736304759979248, 0.14467769861221313, 0.48598772287368774, 0.33604568243026733, 0.6629154682159424, -0.18594558537006378, 0.036368027329444885, -0.08863385766744614, 0.08054959774017334, -0.217524453997612, 0.25704094767570496, 0.44563114643096924, 0.13158375024795532], [0.09834227710962296, 0.25919947028160095, 0.013641917146742344, 0.37581130862236023, 0.019041074439883232, 0.34867069125175476, 0.5215444564819336, 0.30039870738983154, -0.14057791233062744, -0.07194921374320984, 0.39077579975128174, 0.45574823021888733, -0.06903719902038574, -0.23369084298610687, 0.47963419556617737, 0.05906277149915695, 0.3359265625476837, 0.024765774607658386, 0.08449922502040863], [0.044170308858156204, 0.020834093913435936, 0.16386082768440247, 0.06715449690818787, -0.04859880357980728, 0.3357040286064148, -0.6318542957305908, 0.07316575199365616, -0.04771166294813156, -0.06177843362092972, -0.31140756607055664, -0.07803201675415039, -0.3746439516544342, -0.20296941697597504, 0.11842456459999084, 0.2759939134120941, 0.13699370622634888, -0.3400344252586365, 0.08712219446897507], [-0.33740463852882385, -0.16607871651649475, 0.3770638406276703, 0.217832550406456, 0.06450483947992325, -0.21902762353420258, 0.10015803575515747, -0.14246666431427002, -0.060740768909454346, 0.05069335177540779, -0.04572688788175583, 0.009675450623035431, -0.18183109164237976, -0.7455931305885315, -0.8313784599304199, -0.2381579875946045, -0.0689312294125557, 0.09416157752275467, 0.06770756840705872], [0.0025975722819566727, 0.21115700900554657, 0.20147137343883514, -0.07538729906082153, -0.4106335937976837, 0.20349492132663727, 0.14280134439468384, 0.3843158781528473, -0.5073266625404358, 0.024856487289071083, -0.4598848521709442, -0.16702422499656677, -0.04170353338122368, 0.49663543701171875, 0.16758358478546143, -0.011995197273790836, -0.11549247056245804, -0.20613586902618408, -0.3455047309398651], [-0.007783667184412479, 0.31582632660865784, 0.34721609950065613, 0.13903765380382538, -0.18812383711338043, 0.3185705244541168, 0.09076016396284103, 0.15183354914188385, -0.341519296169281, -0.33109089732170105, -0.10847308486700058, 0.312054842710495, 0.3646526038646698, -0.6219445466995239, 0.2124890387058258, -0.18279972672462463, -0.11287295818328857, 0.23718619346618652, 0.6140592098236084], [0.27275902032852173, -0.14499342441558838, 0.18972529470920563, 0.16339243948459625, -0.21563416719436646, -0.06455273926258087, -0.03473315015435219, 0.26208963990211487, 0.03521726652979851, -0.1430937945842743, 0.13944724202156067, 0.10510850697755814, -0.0044844793155789375, 0.0020438353531062603, 0.22555261850357056, 0.32915785908699036, -0.487205445766449, 0.0669606477022171, 0.0642130970954895], [-0.12447047233581543, 0.15964531898498535, 0.125701904296875, 0.06184559315443039, -0.13612909615039825, 0.525111734867096, 0.3116409182548523, 0.2935580313205719, -0.15661762654781342, -0.23017480969429016, -0.28526997566223145, -0.25984615087509155, 0.42037689685821533, -0.13168120384216309, -0.2817695438861847, -0.09595507383346558, 0.24147407710552216, -0.2784350514411926, 0.08814747631549835], [0.5821177363395691, -0.017498120665550232, 0.16171056032180786, -0.026512648910284042, 0.569166898727417, -0.468299001455307, 0.6484575271606445, 0.47379353642463684, 0.14337438344955444, -0.15106692910194397, -0.18784961104393005, -0.12106417864561081, 0.20273615419864655, 0.05275892838835716, 0.3776448369026184, 0.041449446231126785, -0.03922031819820404, -0.3007890582084656, 0.17426614463329315], [0.28215256333351135, 0.5513882637023926, 0.41644030809402466, 0.4029013514518738, -0.15153752267360687, 0.2569035589694977, 0.33020302653312683, 0.08256062120199203, 0.5584412813186646, 0.292060911655426, 0.6518985629081726, 0.14703057706356049, 0.4941997230052948, 0.011163221672177315, 0.15087445080280304, 0.40827715396881104, 0.558260440826416, 0.465724378824234, 0.33341559767723083], [0.49736297130584717, 0.03271825239062309, -0.027943119406700134, 0.20219163596630096, 0.01325292233377695, -0.2679438889026642, 0.18669115006923676, 0.24796545505523682, -0.014074137434363365, -0.08405286818742752, 0.10481937974691391, 0.21959584951400757, 0.01189464796334505, 0.4507327079772949, -0.03676467761397362, -0.17308244109153748, 0.7327210307121277, 0.1918347030878067, 0.586406946182251], [0.04799653962254524, -0.04197290539741516, 0.30242347717285156, -0.5752201676368713, -0.18865901231765747, 0.41034114360809326, 0.07321356236934662, -0.21424539387226105, 0.2307754009962082, 0.10732392966747284, 0.0498170331120491, 0.27083155512809753, -0.2773216664791107, -0.2303112894296646, -0.36870577931404114, -1.4555408954620361, 0.1414804309606552, 0.3254566788673401, 0.24215853214263916], [-0.03073972836136818, 0.4313780963420868, -0.27322471141815186, 0.3003738820552826, -0.27614182233810425, 0.14797015488147736, -0.22481156885623932, 0.15082654356956482, 0.19074545800685883, 0.11845878511667252, 0.5600907802581787, 0.2824561297893524, 0.003335535293444991, 0.1223839819431305, 0.2140471488237381, -0.15030866861343384, 0.5486880540847778, 0.08508997410535812, -0.037112969905138016], [0.21882005035877228, -0.31572163105010986, 0.061553955078125, -0.12751196324825287, 0.1628875583410263, -0.06801094859838486, 0.569767951965332, 0.11440955102443695, 0.47250863909721375, -0.4674266278743744, -0.44364842772483826, 0.22193600237369537, 0.06299891322851181, -0.2415643334388733, -0.21504691243171692, -0.6178311705589294, 0.023782968521118164, 0.35818755626678467, -0.029298072680830956], [0.03030695766210556, 0.21708033978939056, 0.14374393224716187, 0.1631292849779129, -0.09206321090459824, -0.07388395816087723, 0.3866555094718933, -0.25354576110839844, 0.30481043457984924, 0.3087688982486725, -0.6205102205276489, 0.5301437973976135, 0.42386701703071594, 0.13393288850784302, 0.16799339652061462, -0.6796923875808716, 0.3528178334236145, 0.43333980441093445, 0.058285120874643326], [0.1638660728931427, 0.39475181698799133, 0.4076196849346161, -0.5817854404449463, 0.1217060461640358, -0.21374641358852386, 0.24787276983261108, 0.3366610109806061, -0.25387778878211975, -0.0631999596953392, -0.7176511287689209, -0.06885969638824463, -0.049469806253910065, 0.19683584570884705, 0.21979784965515137, 0.3365963399410248, -0.03442995250225067, 0.2814989387989044, 0.5575633645057678], [-0.6407352089881897, 0.37917354702949524, 0.2095954269170761, 0.17340488731861115, -0.3699171245098114, -0.11971256881952286, 0.7516446113586426, 0.3148101270198822, 0.2762381434440613, -0.24796484410762787, 0.41183409094810486, -0.274997740983963, 0.42711693048477173, 0.1480221450328827, 0.27633213996887207, 0.8310778737068176, 0.17146597802639008, 0.2462756484746933, 0.3860359787940979], [0.10763335973024368, -0.0734710767865181, 0.06060168519616127, -0.0747140496969223, 0.42078953981399536, -0.5584243535995483, 0.26090842485427856, -0.10335789620876312, -0.15982010960578918, -0.36151444911956787, 0.3102131485939026, -0.16485755145549774, 0.17194980382919312, -0.511491596698761, -0.10167112201452255, -0.20235727727413177, -0.7785584330558777, -0.3370831310749054, -0.05118352174758911], [-0.08309294283390045, -0.13939765095710754, 0.1863059252500534, -0.08134439587593079, -0.34638968110084534, 0.29604652523994446, -0.009457199834287167, -0.89974445104599, -0.26896339654922485, 0.10509931296110153, -0.3216628432273865, 0.008698389865458012, 0.2411344200372696, 0.06268054246902466, 0.08933806419372559, -0.004294184502214193, -0.13677094876766205, 0.12586592137813568, -0.012853625230491161], [0.28654831647872925, 0.16823440790176392, 0.23817585408687592, -0.031189335510134697, 0.5971765518188477, -0.12783893942832947, -0.05022115632891655, 0.06615373492240906, 0.5959065556526184, -0.06815711408853531, 0.3642876148223877, 0.003500851569697261, -0.35158655047416687, 0.07475902885198593, 0.41648826003074646, 0.009285775944590569, -0.13527503609657288, 0.937523365020752, -0.11246565729379654], [0.2720549702644348, 0.016185227781534195, 0.2780033349990845, 0.21511533856391907, 0.42052602767944336, 0.563890278339386, -0.20921678841114044, -0.21094347536563873, 0.1293049454689026, -0.06921008974313736, 0.144025519490242, -0.23799791932106018, 0.5982301831245422, 0.20072299242019653, -0.4630078971385956, 0.23825719952583313, 0.5071834921836853, 0.26726794242858887, 0.3419838845729828], [0.26234570145606995, 0.4467941224575043, 0.3650025725364685, -0.14918477833271027, 0.3754929006099701, -0.09953125566244125, 0.14069557189941406, -0.003888373728841543, 0.11521695554256439, 0.09892923384904861, -0.4381585121154785, 0.7359816431999207, 0.3419615924358368, 0.1767687052488327, 0.17894181609153748, 0.2263677567243576, 0.07568104565143585, -0.23473186790943146, 0.1899757832288742], [-0.13620240986347198, -0.14722971618175507, 0.23244424164295197, 0.013179853558540344, 0.27063697576522827, -0.197884663939476, -0.3452723026275635, -0.47571036219596863, 0.06283044815063477, 0.04702746868133545, -0.10901248455047607, 0.04585310071706772, -0.2034696787595749, 0.7537028789520264, -0.04470472037792206, -0.3163018226623535, 0.32478711009025574, 0.4155619144439697, 0.11923199892044067], [0.16385389864444733, 0.018701674416661263, -0.18058958649635315, 0.4370148181915283, -0.7570122480392456, 0.10327804833650589, 0.3106308579444885, -0.5295813083648682, 0.3631022572517395, 0.05393727496266365, 0.25470128655433655, 0.2680487334728241, 0.15056508779525757, -0.004337251652032137, 0.2521791160106659, -0.11194029450416565, 0.20699739456176758, 0.2641286849975586, 0.20762182772159576], [0.1100035011768341, 0.46703580021858215, 0.31202638149261475, 0.24825884401798248, 0.1043747290968895, 0.1975431889295578, 0.42944106459617615, 0.7073033452033997, 0.2283850610256195, 0.23383641242980957, -0.07792667299509048, -0.12014272063970566, 0.3193579912185669, -0.013914357870817184, 0.26716262102127075, 0.39762964844703674, -0.11279910802841187, -0.2747334837913513, 0.16282115876674652], [0.1653522104024887, 0.03988902270793915, -0.17990319430828094, 0.3878147304058075, -0.3758643865585327, -0.30109500885009766, -0.09237566590309143, -0.6830234527587891, 0.4136097729206085, 0.37903475761413574, -0.4603181481361389, -0.19470548629760742, -0.06874262541532516, 0.19967740774154663, -0.04401436820626259, 0.07325174659490585, 0.3516174852848053, -0.21189168095588684, -0.0383528508245945], [0.08570332080125809, 0.32967138290405273, -0.13483648002147675, 0.3758288621902466, 0.0068464940413832664, -0.12692643702030182, 0.39702507853507996, 0.39862900972366333, 0.2705073654651642, 0.17043128609657288, 0.010950329713523388, 0.595019519329071, 0.4047321081161499, 0.1746332347393036, 0.04736486077308655, -0.028296923264861107, -0.23217293620109558, 0.5751873254776001, -0.1458102911710739], [-0.34982872009277344, 0.10096360743045807, 0.34448695182800293, 0.3747066855430603, 0.4444858729839325, 0.12628528475761414, -0.37214332818984985, -0.24454639852046967, 0.05013709142804146, 0.48252353072166443, -0.08442384749650955, -0.0430435836315155, -0.2897307574748993, -0.23491975665092468, 0.03078184463083744, 0.048959050327539444, -0.08844893425703049, 0.45316407084465027, 0.2917726933956146], [-0.38099125027656555, 0.08748117834329605, 0.5424891710281372, 0.17771676182746887, 0.31805384159088135, 0.5442373752593994, 0.43043050169944763, 0.4123293459415436, 0.5075820684432983, 0.43666940927505493, 0.30709996819496155, 0.04078123718500137, 0.5053478479385376, 0.3324183225631714, -0.07732237875461578, 0.16311345994472504, 0.6257115006446838, 0.2559645473957062, 0.33703216910362244], [-0.18086810410022736, -0.08155523985624313, 0.020558586344122887, 0.5732599496841431, -0.19484512507915497, 0.28415608406066895, 0.27930498123168945, 0.1109083816409111, 0.5390455722808838, 0.0714855045080185, 0.10904254019260406, 0.08579850941896439, 0.07856186479330063, 0.6079015731811523, 0.2740381956100464, 0.08257079124450684, -0.008098232559859753, 0.21166470646858215, 0.16665925085544586], [-0.3736272156238556, -0.15728843212127686, 0.5270828008651733, 0.019748583436012268, -0.31000837683677673, 0.30234840512275696, 0.1820777803659439, 0.11121851950883865, 0.19286787509918213, 0.8086181879043579, -0.3556184768676758, 0.04632463678717613, 0.22145967185497284, -0.08217720687389374, 0.2840708792209625, 0.14610609412193298, 0.14169764518737793, 0.19736804068088531, -0.28540319204330444], [0.5727781653404236, -0.7369075417518616, 0.2349640280008316, 0.21219708025455475, 0.24987362325191498, 0.4002225697040558, 0.24233028292655945, 0.4023958146572113, 0.20955607295036316, 0.04563768580555916, 0.006091041956096888, -0.41777074337005615, -0.20375807583332062, -0.5875858068466187, 0.31585219502449036, -0.1702510118484497, -0.029383564367890358, 0.18180717527866364, 0.12609118223190308], [0.1634679138660431, -0.37447449564933777, -0.054991401731967926, 0.5385553240776062, 0.3174944519996643, -0.40638601779937744, -0.44273117184638977, 0.05061705410480499, 0.3519698977470398, 0.10168354958295822, -0.004177306778728962, -0.2087724357843399, 0.09716589748859406, 0.3675508499145508, -0.41324475407600403, 0.1843145340681076, 0.2195151299238205, 0.7568399906158447, 0.35315001010894775], [-0.0009282056125812232, 0.029356583952903748, 0.17634770274162292, 0.018829992040991783, -0.4903191924095154, 0.28243523836135864, -0.1447330117225647, -0.16269657015800476, 0.47845742106437683, 0.05985313653945923, 0.3934902548789978, 0.682201623916626, -0.17263610661029816, -0.40354683995246887, 0.47977134585380554, 0.3168129622936249, 0.35735028982162476, 0.37726253271102905, 0.2136671394109726], [0.5332943797111511, 0.14236049354076385, 0.2866716980934143, -0.2689034938812256, -0.06435297429561615, -0.3946562707424164, -0.1320277750492096, -0.36436256766319275, 0.3885829448699951, 0.2514462172985077, -0.25610408186912537, -0.1619553416967392, -0.16658827662467957, 0.29390236735343933, 0.07520150393247604, 0.2948268949985504, -0.4749424457550049, 0.16605985164642334, 0.011073642410337925], [0.2558334469795227, 0.1289999932050705, 0.21099340915679932, -0.3381897211074829, 0.14238572120666504, -0.023771610110998154, 0.23496824502944946, -0.15812070667743683, -0.049788948148489, -0.2694490849971771, -0.33010485768318176, -0.2617846727371216, 0.03903583437204361, 0.1596437394618988, 0.10796760767698288, -0.37052637338638306, 0.1235845759510994, -0.06217344477772713, 0.3191221058368683], [0.583115816116333, 0.11008825898170471, 0.18604609370231628, -0.04696987196803093, 0.16667042672634125, 0.6110662817955017, -0.11413498222827911, 0.24634207785129547, 0.0855887234210968, 0.10625167936086655, -0.09943050891160965, 0.08752916753292084, 0.14952141046524048, 0.34721753001213074, -0.17413872480392456, 0.5874331593513489, 0.3201858699321747, 0.11786084622144699, 0.15720689296722412], [0.3016595244407654, -0.2094498723745346, -0.3474802076816559, 0.385869562625885, 0.11216999590396881, 0.22622381150722504, -0.059921398758888245, -0.09952875971794128, 0.037686318159103394, -0.269095778465271, -0.2484237104654312, 0.49153077602386475, 0.12533365190029144, 0.10992664843797684, -0.3474951386451721, -0.23439408838748932, 0.09470225125551224, 0.16008131206035614, 0.08976499736309052], [0.40048351883888245, 0.27175626158714294, 0.36536911129951477, 0.08783070743083954, -0.024249248206615448, -0.26210445165634155, 0.5030463933944702, -0.4455506205558777, -0.49766281247138977, 0.4633268117904663, -1.024182915687561, 0.1635669469833374, 0.03822546824812889, 0.41606253385543823, -0.024425288662314415, 0.04130437225103378, 0.14870356023311615, 0.1590930074453354, 0.09551297873258591], [-0.2857658565044403, -0.13690467178821564, 0.3091600239276886, -0.12410388886928558, 0.0690433531999588, 0.16017112135887146, 0.4898574948310852, -0.06000717356801033, 0.42385628819465637, -0.11254086345434189, 0.5919807553291321, 0.482155978679657, -0.17489193379878998, 0.6099687218666077, -0.23039762675762177, -0.2115553915500641, 0.6718661785125732, 0.3092058002948761, -0.3659599721431732], [0.11570903658866882, 0.1224035993218422, -0.07460722327232361, 0.3146059215068817, 0.1545310765504837, 0.22890257835388184, 0.4581058621406555, -0.13665959239006042, -0.038899898529052734, -0.18748515844345093, 0.21378649771213531, 0.49589183926582336, 0.14560702443122864, -0.32002338767051697, 0.0005600558943115175, -0.24840587377548218, 0.17860086262226105, -0.023112155497074127, 0.001964833587408066], [0.09643761068582535, 0.0817728191614151, 0.354561984539032, 0.014089168980717659, -0.21153400838375092, -0.048414211720228195, 0.1269577592611313, -0.5291658043861389, 0.11689484864473343, 0.3738541305065155, 0.09444288909435272, 0.27474841475486755, 0.27249181270599365, 0.4598786532878876, 0.4171596169471741, 0.1661577671766281, -0.020703667774796486, -0.22807271778583527, 0.42125746607780457], [0.26552778482437134, -0.02915453538298607, -0.4458654224872589, 0.5840659141540527, -0.411288321018219, 0.2588390111923218, 0.04944898188114166, -0.11441868543624878, 0.017592551186680794, -0.20406995713710785, 0.32415416836738586, -0.25264468789100647, -0.19250938296318054, 0.43355274200439453, 0.13856440782546997, 0.3838462233543396, 0.17449535429477692, 0.20594172179698944, 0.2741948068141937], [0.1851082444190979, -0.27610325813293457, 0.20393739640712738, 0.024845978245139122, -0.29881376028060913, 0.0035579572431743145, 0.2995728552341461, -0.24041225016117096, 0.17379623651504517, -0.2396654188632965, -1.7325091903330758e-05, -0.03283718600869179, -0.12782800197601318, -0.1284816563129425, 0.2793659567832947, 0.37946638464927673, -0.6172530651092529, -0.3024122714996338, 0.5021111369132996], [0.38166365027427673, 0.007677739020437002, 0.3256351351737976, 0.5168343186378479, 0.5691898465156555, -0.04753813147544861, -0.06311124563217163, -0.2564617693424225, 0.24333424866199493, -0.06092032045125961, 0.3181813955307007, 0.6019607782363892, 0.03220301866531372, 0.14439250528812408, 0.3085602819919586, 0.43923458456993103, 0.5480080842971802, -0.32832643389701843, 0.22643758356571198], [0.12300723046064377, 0.18562324345111847, 0.07375197857618332, 0.2299472540616989, 0.7540580034255981, 0.21325348317623138, 0.3057561218738556, 0.2861690819263458, 0.5099620819091797, 0.13885365426540375, -0.20158953964710236, 0.5905858278274536, 0.13945114612579346, -0.18091058731079102, -0.32177069783210754, 0.2415173500776291, -0.21489892899990082, -0.1561637818813324, 0.598534882068634], [-0.10654640197753906, -0.04392579570412636, 0.12194456160068512, -0.09350735694169998, 0.4607792794704437, 0.2013404816389084, -0.6198837161064148, -1.0296205282211304, 0.1309272050857544, 0.17584723234176636, -0.26152992248535156, -0.3792535960674286, -0.34424588084220886, 0.04203203320503235, 0.20111332833766937, -0.2685958445072174, -0.08595749735832214, -0.28562936186790466, 0.10473529994487762], [0.09497564285993576, -0.08938710391521454, 0.4643072485923767, 0.33402660489082336, -0.7262603044509888, -0.6607151627540588, 0.1551228165626526, 0.08655470609664917, -0.2725285589694977, 0.2978977560997009, 0.07574737071990967, -0.04311650991439819, 0.002955829259008169, -0.01914355345070362, 0.30590662360191345, 0.2843467593193054, -0.060419533401727676, 0.135813906788826, -0.3201144337654114], [0.2529371678829193, -0.100201316177845, -0.01000638771802187, -0.02269612066447735, 0.13890719413757324, 0.47408732771873474, 0.28162679076194763, 0.3311625123023987, -0.03638111427426338, -0.42953160405158997, -0.13062447309494019, -0.1743745654821396, 0.28238898515701294, 0.27956387400627136, -0.20244818925857544, -0.23255637288093567, 0.05830027535557747, 0.17832565307617188, 0.07376372069120407], [0.032758552581071854, 0.14944082498550415, 0.12814204394817352, -0.24541166424751282, -0.2534993886947632, -0.03543184697628021, 0.141822949051857, 0.23802891373634338, 0.037182509899139404, -0.22208711504936218, -0.6589620113372803, 0.7536182999610901, 0.07921482622623444, 0.27500420808792114, 0.16291186213493347, 0.23188923299312592, -0.01710226573050022, 0.2833998501300812, -0.26922500133514404], [0.21211592853069305, -0.1520800143480301, 0.28283512592315674, 0.4135153591632843, -0.12206673622131348, 0.031519316136837006, -0.045270394533872604, -0.2881278395652771, -0.24720947444438934, 0.32697442173957825, 0.40872278809547424, -0.2045293003320694, -0.296617329120636, -0.07864297926425934, 0.17508649826049805, -0.11268939077854156, 0.15923874080181122, 0.3328953683376312, -0.09658464044332504], [0.266425222158432, -0.5412386059761047, 0.6246538162231445, 0.1059519499540329, 0.300224632024765, 0.10211900621652603, 0.6479963064193726, 0.022065790370106697, 0.6581394672393799, 0.12498418241739273, -0.6862216591835022, 0.5152699947357178, -0.06442750990390778, 0.22880132496356964, -0.024001190438866615, 0.25037282705307007, 0.36408302187919617, 0.011206847615540028, 0.0822048932313919], [0.45827603340148926, 0.43754488229751587, 0.40656331181526184, 0.377027302980423, 0.3535831570625305, 0.10429444164037704, 0.9631829261779785, 0.3929242193698883, -0.06756949424743652, 0.15999627113342285, 0.8373177647590637, 0.39707323908805847, 0.38294199109077454, 0.3002238869667053, -0.19856557250022888, 0.15496201813220978, -0.0911545678973198, 0.36445629596710205, 0.26847660541534424], [-0.13232290744781494, -0.20010261237621307, 0.09225687384605408, 0.20917126536369324, 0.5762917995452881, -0.2528231739997864, 0.17850567400455475, 0.04937279224395752, 0.09017129242420197, 0.13994529843330383, -0.31990039348602295, 0.32336363196372986, 0.04660559818148613, 0.19038495421409607, -0.41433313488960266, 0.08317668735980988, -0.4878044128417969, -0.5246188044548035, -0.21466858685016632], [-0.42619290947914124, 0.31054961681365967, 0.2881763279438019, -0.2772562503814697, -0.5602120757102966, 0.01184907741844654, -0.047693368047475815, -0.14736805856227875, -0.13931915163993835, -0.49891015887260437, 0.07495220005512238, 0.020103709772229195, 0.05979416146874428, -0.34759965538978577, 0.3409424424171448, 0.4189662039279938, 0.07055306434631348, 0.3787776529788971, 0.3907754719257355], [-0.2837672829627991, 0.40655407309532166, 0.19842171669006348, -0.0005364491953514516, 0.06922952085733414, -0.0008532218635082245, -0.12127244472503662, -0.25545617938041687, 0.1893300861120224, 0.14016129076480865, -0.03269851207733154, -0.4144893288612366, -0.18056005239486694, -0.2465776801109314, 0.7203441262245178, 0.5995553135871887, -0.06190834939479828, 0.311702162027359, -0.28094682097435], [0.36131751537323, 0.07372672855854034, -0.299095094203949, 0.7061073780059814, 0.18853776156902313, 0.14976295828819275, -0.01916562393307686, -0.10707295686006546, -0.18103064596652985, -0.057712946087121964, 0.20055513083934784, 0.9543975591659546, 0.27188706398010254, 0.054701827466487885, 0.41375383734703064, -0.08860386908054352, 0.21717719733715057, 0.6146826148033142, 0.34429478645324707], [-0.15614046156406403, -0.30304744839668274, 0.05161818861961365, 0.19655872881412506, 0.027192624285817146, -0.3472502827644348, -1.3091779947280884, -0.6548437476158142, 0.14907506108283997, 0.32686755061149597, -0.041417889297008514, -0.12105768918991089, -0.10590693354606628, 0.13107512891292572, -0.2840062379837036, 0.2335587441921234, 0.1520787477493286, 0.038824714720249176, 0.2899912893772125], [0.4598439633846283, 0.27119043469429016, 0.5118343830108643, 0.2062845677137375, 0.46571052074432373, -0.23290880024433136, 0.035833489149808884, -0.16458484530448914, -0.018481392413377762, 0.3329615592956543, 0.27182501554489136, 0.3686988353729248, -0.2743109464645386, 0.52278733253479, -0.09294290095567703, 0.041672274470329285, 0.15284959971904755, -0.19826900959014893, 0.34060344099998474], [-0.35301917791366577, 0.029507722705602646, 0.08088558167219162, 0.3324700891971588, -0.18755795061588287, 0.1537424921989441, 0.18560069799423218, 0.2005971521139145, 0.5622547268867493, 0.030254928395152092, 0.43861255049705505, 0.1497490257024765, 0.3406878411769867, 0.9297112822532654, 0.26873499155044556, 0.24309223890304565, 0.021433966234326363, -0.011739878915250301, 0.46271687746047974], [0.1947215497493744, 0.16751936078071594, 0.23803764581680298, 0.24176344275474548, -0.20378151535987854, 0.05055886134505272, 0.05763410031795502, 0.5626798272132874, -0.2478874772787094, 0.22847312688827515, -0.07059872150421143, 0.8504626750946045, 0.20994935929775238, 0.11409120261669159, 0.09983068704605103, 0.7640812993049622, 0.26115483045578003, 0.26851770281791687, -0.06254201382398605], [0.23039792478084564, -0.02071445994079113, -0.05294467881321907, 0.22934846580028534, 0.16808639466762543, 0.2779688835144043, 0.09813399612903595, 0.5302062630653381, -0.41636019945144653, -0.2907102406024933, -0.05534043163061142, 0.069513700902462, 0.4116080403327942, 0.44564515352249146, -0.2691260874271393, -0.09727808833122253, 0.44907763600349426, 0.33370497822761536, 0.019543414935469627], [0.24084681272506714, 0.09678034484386444, -0.2878040373325348, 0.13823838531970978, -0.12890592217445374, 0.21723949909210205, 0.28342610597610474, 0.2904445230960846, -0.640387773513794, 0.4329434037208557, 0.09769854694604874, 0.5413170456886292, 0.005608892533928156, 0.08144567906856537, -0.8279592394828796, -0.4966945946216583, 0.1797526776790619, 0.25937366485595703, -0.4992550313472748], [0.08228418976068497, 0.03864581882953644, -0.12673141062259674, 0.25685301423072815, -0.3506532609462738, 0.5481688380241394, 0.6069009304046631, 0.12472367286682129, 0.06724031269550323, -0.19193948805332184, 0.00378282368183136, 0.02463139034807682, 0.10133073478937149, -0.5712037086486816, 0.13327419757843018, -0.2967563271522522, -0.019586659967899323, -0.4866223633289337, 0.10884655267000198], [0.37765467166900635, 0.34900394082069397, 0.3228496015071869, 0.8319467306137085, -0.009816262871026993, 0.5035091638565063, 0.22046829760074615, -0.11794519424438477, -0.21459507942199707, 0.45125865936279297, 0.07256823778152466, 0.28106510639190674, 0.3619385361671448, -0.056493643671274185, 0.005997472908347845, 0.14140647649765015, 0.07559693604707718, 0.22441361844539642, 0.514805793762207], [0.3192312717437744, -0.012239894829690456, 0.28208717703819275, 0.06350510567426682, 0.7309355735778809, 0.7208055257797241, -0.30083462595939636, -0.43624407052993774, 0.03220679238438606, 0.29063880443573, -0.20298884809017181, 0.45492103695869446, -0.21738435328006744, -0.3151223361492157, 0.05386773869395256, 0.5081760287284851, 0.06378144770860672, 0.36401042342185974, 0.21039697527885437], [0.41422632336616516, 0.01184180099517107, 0.008149580098688602, 0.11271630972623825, 0.24911217391490936, 0.32056060433387756, 0.09121368080377579, 0.2274063378572464, 0.40108951926231384, -0.26504969596862793, -0.18925942480564117, 0.16019639372825623, 0.31456756591796875, 0.7971804141998291, 0.2209540158510208, -0.15050362050533295, 0.2541016638278961, 0.27244070172309875, 0.05295436829328537], [0.24526646733283997, -0.12184742838144302, -0.3114127516746521, -0.3124401867389679, 0.1426342874765396, -0.37046483159065247, 0.0070447418838739395, 0.11352353543043137, 0.4315192699432373, -0.07624868303537369, 0.12578342854976654, 0.15553733706474304, -0.09237052500247955, 0.3398742973804474, 0.46599727869033813, -0.05956457927823067, -0.0336250402033329, 0.354160875082016, -0.044182728976011276], [0.25669729709625244, 0.2521476149559021, -0.4063836634159088, 0.7524555325508118, 0.034850578755140305, 0.5091941356658936, 0.550380289554596, -0.022351134568452835, 0.11057329177856445, 0.12889936566352844, -0.04152588173747063, -0.3325788080692291, 0.4582289457321167, 0.3929123878479004, 0.07072731852531433, -0.15843252837657928, 0.09345642477273941, 0.5002270936965942, 0.020924037322402], [-0.11469777673482895, -0.18266627192497253, -0.21709559857845306, 0.3234979212284088, -0.3694182336330414, 0.5485751628875732, -0.4403914511203766, -0.7686053514480591, -0.13003891706466675, 0.1668916493654251, 0.30191752314567566, -0.8067679405212402, -0.016322927549481392, 0.5187003016471863, -0.13095954060554504, 0.26506316661834717, -0.4731789827346802, -0.23275244235992432, -0.34920766949653625], [0.1978217214345932, 0.8116400837898254, 0.03718378022313118, 0.07785153388977051, -0.3092934489250183, -0.2775994837284088, 0.4792616665363312, 0.02136296220123768, 0.42260342836380005, -0.4986131191253662, 0.45031267404556274, 0.3222523033618927, 0.3429669737815857, 0.10065823048353195, 0.3730601966381073, 0.5926368236541748, 0.34504157304763794, 0.5847792029380798, 0.35653024911880493], [0.33842211961746216, 0.4168813228607178, -0.3346676230430603, -0.07897118479013443, -0.13620389997959137, 0.2791818678379059, 0.42356789112091064, 0.5983278155326843, 0.0721149891614914, 0.029175858944654465, 0.07305870950222015, -0.2697395980358124, 0.04662124440073967, -0.21997271478176117, -0.22916164994239807, -0.2734229564666748, -0.16955550014972687, 0.5299550294876099, 0.29118409752845764], [0.37428611516952515, 0.2251051664352417, -0.1167367622256279, 0.3797207474708557, -0.6782669425010681, 0.3940977454185486, -0.33159303665161133, 0.1575736254453659, -0.2696022689342499, 0.35811910033226013, 0.0801539495587349, 0.11189363896846771, -0.07722776383161545, 0.24503663182258606, -0.4978799819946289, 0.18723364174365997, 0.30041563510894775, 0.5174120664596558, 0.10705329477787018], [0.28656309843063354, -0.2734762728214264, 0.10633901506662369, -0.3697063624858856, 0.20962920784950256, -0.1166897714138031, 0.5943193435668945, 0.4006580114364624, -0.13057370483875275, 0.15845657885074615, 0.28906500339508057, -0.06798404455184937, 0.23151598870754242, 0.10906248539686203, -0.6994710564613342, -0.4311622381210327, 0.5848637819290161, 0.06212436035275459, 0.5588890910148621], [-0.25426506996154785, 0.4123721122741699, 0.08600271493196487, 0.016925903037190437, 0.4438823461532593, 0.3180035948753357, -0.0540497824549675, -0.4370090961456299, -0.1723724603652954, -0.01607811078429222, -0.6356905102729797, -0.30328336358070374, 0.2778151035308838, 0.12812671065330505, -0.16047273576259613, 0.4004835784435272, -0.26223793625831604, 0.3463513255119324, 0.30954915285110474], [-0.17654794454574585, 0.13745728135108948, 0.28093835711479187, 0.4648221433162689, 0.20668895542621613, 0.004272790160030127, -0.02251071110367775, 0.3972446322441101, 0.040742699056863785, 0.15797901153564453, 0.2839135527610779, -0.08769543468952179, 0.08833559602499008, 0.8593777418136597, 0.30860820412635803, 0.27755266427993774, -0.1474965512752533, 0.5659506320953369, 0.09833724051713943], [-1.0792919397354126, 0.3826213777065277, 0.09364701062440872, 0.13752466440200806, -0.3425822854042053, 0.0811399593949318, -0.39316436648368835, -0.0517716184258461, 0.23346750438213348, 0.3011496961116791, -0.23148755729198456, -0.29316866397857666, 0.27362552285194397, -0.3502626419067383, 0.08859645575284958, 0.5162624716758728, -0.19264717400074005, 0.4614134132862091, 0.43474897742271423], [0.002786144381389022, 0.1662507802248001, -0.18498441576957703, 0.1923850029706955, 0.4744848608970642, 0.3274317681789398, 0.2382148951292038, 0.47455641627311707, -0.030795738101005554, -0.2994901239871979, -0.4556400775909424, 0.42937901616096497, 0.24237795174121857, 0.19427505135536194, 0.3977300524711609, -0.14455874264240265, -0.6820887923240662, 0.47309184074401855, 0.290839821100235], [0.4824541211128235, 0.22065499424934387, 0.3299822211265564, -0.1724778711795807, -0.5255157351493835, 0.11845231801271439, -0.12591834366321564, -0.07885981351137161, -0.025424158200621605, -0.017498981207609177, 0.04056340456008911, 0.003932620398700237, -0.18478989601135254, 0.2860472798347473, -0.0008565930766053498, -0.3451458513736725, -0.08371707051992416, -0.07846741378307343, 0.18272772431373596], [0.3204987347126007, -0.07781647890806198, 0.05149576812982559, 0.493667334318161, 0.37146875262260437, 0.47092345356941223, -0.14074751734733582, 0.46662241220474243, -0.22141580283641815, 0.18778875470161438, -0.5611532926559448, 0.12679561972618103, 0.16399548947811127, 0.05472368374466896, -0.11022958159446716, 0.31193721294403076, 0.05120322108268738, 0.12562739849090576, 0.13016527891159058], [-0.13199225068092346, -0.03479139134287834, -0.1121000424027443, 0.16123029589653015, -0.25458428263664246, 0.43685343861579895, -0.12716589868068695, -0.26635196805000305, -0.033902425318956375, -0.3418016731739044, 0.20047122240066528, -0.06168365851044655, 0.3132378160953522, 0.2548031806945801, 0.13484178483486176, 0.241410493850708, -0.6817010641098022, 0.2462892085313797, 0.04761498048901558], [-0.44408664107322693, 0.3416760563850403, -0.08725667744874954, 0.03873899579048157, 0.13325509428977966, 0.13315099477767944, 0.29218581318855286, -0.32812321186065674, 0.030422242358326912, -0.2025778591632843, -0.2741904556751251, 0.09843505918979645, -0.13901840150356293, 0.5348410606384277, 0.08147011697292328, -0.3591082692146301, -0.1733756959438324, -0.779973030090332, -0.05026618018746376], [-0.09790058434009552, 0.3051782250404358, 0.09893292933702469, -0.32156190276145935, 0.2296070158481598, -0.035000499337911606, -0.2208928018808365, 0.0110788494348526, 0.09315533190965652, -0.1837156116962433, -0.10690680146217346, 0.49299272894859314, 0.02836959809064865, 0.36502763628959656, 0.20144543051719666, 0.2474457323551178, 0.2482575625181198, -0.13980425894260406, 0.2253694087266922], [-0.19628210365772247, -0.06513646990060806, -0.011951902881264687, 0.245062455534935, -0.5236482620239258, -0.08291228860616684, -0.04319624975323677, -0.143513023853302, 0.22563506662845612, 0.03245636075735092, -0.09404098987579346, -0.7792924046516418, -0.04912998154759407, 0.04273064061999321, -0.23543976247310638, -0.5514043569564819, 0.12739653885364532, 0.6148911714553833, 0.23110826313495636], [-0.10448512434959412, 0.060870345681905746, 0.09752314537763596, -0.05585750564932823, -0.1269458532333374, 0.19546359777450562, 0.10274337232112885, 0.07463555037975311, 0.15502555668354034, -0.35165920853614807, 0.2023068070411682, -0.625382125377655, 